{"learner":{"attributes":{"scikit_learn":"{\"_estimator_type\": \"classifier\"}"},"feature_names":[],"feature_types":[],"gradient_booster":{"model":{"gbtree_model_param":{"num_parallel_tree":"1","num_trees":"100"},"iteration_indptr":[0,1,2,3,4,5,6,7,8,9,10,11,12,13,14,15,16,17,18,19,20,21,22,23,24,25,26,27,28,29,30,31,32,33,34,35,36,37,38,39,40,41,42,43,44,45,46,47,48,49,50,51,52,53,54,55,56,57,58,59,60,61,62,63,64,65,66,67,68,69,70,71,72,73,74,75,76,77,78,79,80,81,82,83,84,85,86,87,88,89,90,91,92,93,94,95,96,97,98,99,100],"tree_info":[0,0,0,0,0,0,0,0,0,0,0,0,0,0,0,0,0,0,0,0,0,0,0,0,0,0,0,0,0,0,0,0,0,0,0,0,0,0,0,0,0,0,0,0,0,0,0,0,0,0,0,0,0,0,0,0,0,0,0,0,0,0,0,0,0,0,0,0,0,0,0,0,0,0,0,0,0,0,0,0,0,0,0,0,0,0,0,0,0,0,0,0,0,0,0,0,0,0,0,0],"trees":[{"base_weights":[-0E0,1.9871836E0,-1.985346E0,1.9938475E0,5.693431E-1,-1.9910086E0,-1.7391305E-1,1.9952677E0,1.2727273E0,-1.2195122E0,1.28E0,-1.4368932E0,-1.9948248E0,-1.44E0,1.2173913E0,1.9961234E0,1.1578947E0,1.5555556E0,-0E0,1.20000005E-1,-1.5428572E0,-0E0,1.6410257E0,-1.6041666E0,6.666667E-1,-1.9951116E0,-0E0,-1.7333333E0,2.0000002E-1,-2.857143E-1,5E-1,6.666667E-1,1.9964095E0,-2.0000002E-1,1.5151515E0,-6.666667E-2,1.755102E0,-2.7272728E-1,3.3333337E-1,-5.2000004E-1,-6.666667E-2,-3.818182E-1,7.368421E-1,-1.5E-1,1.7837838E0,5.454546E-2,-1.6756756E0,4.1538465E-1,-2.0000002E-1,-1.9953974E0,-8.5714287E-1,-1.5E-1,-5.4146343E-1,3E-1,-3.6E-1,-0E0,3E-1,5.989658E-1,1.5E-1,5.172414E-1,-0E0,5.466667E-1,1.5E-1,-2.0000002E-1,4.2857146E-1,5.641791E-1,1.6363637E-1,-5.3063583E-1,-7.5E-2,-5.987907E-1,-3.6774194E-1,-3.6E-1,-0E0],"categories":[],"categories_nodes":[],"categories_segments":[],"categories_sizes":[],"default_left":[0,0,0,0,0,0,0,0,0,0,0,0,0,0,0,0,0,0,0,0,0,0,0,0,0,0,0,0,0,0,0,0,0,0,0,0,0,0,0,0,0,0,0,0,0,0,0,0,0,0,0,0,0,0,0,0,0,0,0,0,0,0,0,0,0,0,0,0,0,0,0,0,0],"id":0,"left_children":[1,3,5,7,9,11,13,15,17,19,21,23,25,27,29,31,33,35,37,-1,39,41,43,45,47,49,-1,51,-1,53,-1,55,57,-1,59,-1,61,-1,-1,-1,-1,-1,63,-1,65,-1,67,-1,-1,69,71,-1,-1,-1,-1,-1,-1,-1,-1,-1,-1,-1,-1,-1,-1,-1,-1,-1,-1,-1,-1,-1,-1],"loss_changes":[5.543466E4,6.521289E1,7.175391E1,4.6191406E0,4.5101715E1,1.1949219E1,4.2267826E1,2.6855469E0,5.939396E0,5.9846687E0,1.1552822E1,1.9190742E1,3.9804688E0,8.879999E0,8.242237E0,1.3183594E0,7.202552E0,5.179138E0,5.0505047E0,0E0,1.8158722E0,7.033493E0,6.852043E0,6.434944E0,5.230769E0,5.527344E-1,0E0,9.024429E-2,0E0,5.3142858E0,0E0,6.666666E-1,4.921875E-1,0E0,2.6123295E0,0E0,1.2086105E-1,0E0,0E0,0E0,0E0,0E0,5.5639095E0,0E0,1.1921234E0,0E0,5.6972656E0,0E0,0E0,6.113281E-1,1.0285714E0,0E0,0E0,0E0,0E0,0E0,0E0,0E0,0E0,0E0,0E0,0E0,0E0,0E0,0E0,0E0,0E0,0E0,0E0,0E0,0E0,0E0,0E0],"parents":[2147483647,0,0,1,1,2,2,3,3,4,4,5,5,6,6,7,7,8,8,9,9,10,10,11,11,12,12,13,13,14,14,15,15,16,16,17,17,18,18,20,20,21,21,22,22,23,23,24,24,25,25,27,27,29,29,31,31,32,32,34,34,36,36,42,42,44,44,46,46,49,49,50,50],"right_children":[2,4,6,8,10,12,14,16,18,20,22,24,26,28,30,32,34,36,38,-1,40,42,44,46,48,50,-1,52,-1,54,-1,56,58,-1,60,-1,62,-1,-1,-1,-1,-1,64,-1,66,-1,68,-1,-1,70,72,-1,-1,-1,-1,-1,-1,-1,-1,-1,-1,-1,-1,-1,-1,-1,-1,-1,-1,-1,-1,-1,-1],"split_conditions":[-1.224867E-1,-1.4038186E0,-1.083959E-1,2.0324796E-1,-2.9669046E-1,-1.4428583E-2,2.7441648E-1,-6.514539E-1,-3.2969363E-2,-1.4807317E0,-3.832049E-1,7.752663E-1,3.3637793E0,6.2188566E-1,-1.6846666E-1,-2.2873025E-1,-5.4665816E-1,-2.6658872E-1,-6.548305E-1,1.20000005E-1,4.6400672E-1,7.3197675E-1,-3.80064E0,-5.5412924E-1,1.0891752E-1,2.4041304E-1,-0E0,-1.51188E-1,2.0000002E-1,6.3967113E-3,5E-1,4.335908E-1,1.9796239E-1,-2.0000002E-1,-2.8799853E-1,-6.666667E-2,4.6706042E-1,-2.7272728E-1,3.3333337E-1,-5.2000004E-1,-6.666667E-2,-3.818182E-1,-2.1903496E0,-1.5E-1,4.5413494E-1,5.454546E-2,-1.661039E-1,4.1538465E-1,-2.0000002E-1,1.3266975E0,-3.3730784E-1,-1.5E-1,-5.4146343E-1,3E-1,-3.6E-1,-0E0,3E-1,5.989658E-1,1.5E-1,5.172414E-1,-0E0,5.466667E-1,1.5E-1,-2.0000002E-1,4.2857146E-1,5.641791E-1,1.6363637E-1,-5.3063583E-1,-7.5E-2,-5.987907E-1,-3.6774194E-1,-3.6E-1,-0E0],"split_indices":[139,1121,1399,640,729,286,757,873,135,1202,591,1449,1414,499,1416,680,120,658,219,0,368,1181,1052,1204,248,454,0,49,0,1,0,4,204,0,393,0,4,0,0,0,0,0,967,0,129,0,1331,0,0,909,2,0,0,0,0,0,0,0,0,0,0,0,0,0,0,0,0,0,0,0,0,0,0],"split_type":[0,0,0,0,0,0,0,0,0,0,0,0,0,0,0,0,0,0,0,0,0,0,0,0,0,0,0,0,0,0,0,0,0,0,0,0,0,0,0,0,0,0,0,0,0,0,0,0,0,0,0,0,0,0,0,0,0,0,0,0,0,0,0,0,0,0,0,0,0,0,0,0,0],"sum_hessian":[1.4049E4,7.02125E3,7.02775E3,6.988E3,3.325E1,7.00575E3,2.2E1,6.9725E3,1.55E1,9.25E0,2.4E1,5.05E1,6.95525E3,1.15E1,1.05E1,6.964E3,8.5E0,1.25E1,3E0,1.5E0,7.75E0,5.5E0,1.85E1,4.7E1,3.5E0,6.95425E3,1E0,1.025E1,1.25E0,2.5E0,8E0,2E0,6.962E3,1.25E0,7.25E0,1.25E0,1.125E1,1.75E0,1.25E0,6.5E0,1.25E0,1.75E0,3.75E0,1E0,1.75E1,1.75E0,4.525E1,2.25E0,1.25E0,6.95175E3,2.5E0,1E0,9.25E0,1E0,1.5E0,1E0,1E0,6.961E3,1E0,6.25E0,1E0,1.025E1,1E0,1.25E0,2.5E0,1.575E1,1.75E0,4.225E1,3E0,6.945E3,6.75E0,1.5E0,1E0],"tree_param":{"num_deleted":"0","num_feature":"1536","num_nodes":"73","size_leaf_vector":"1"}},{"base_weights":[3.7195707E-5,-1.5379767E0,1.536749E0,-1.5419009E0,-3.7205094E-1,1.543442E0,3.3480945E-1,-1.1145675E0,-1.5443625E0,-1.1818765E0,7.9220635E-1,1.5439564E0,-6.6432985E-3,1.120004E0,-5.6439906E-1,-1.2487947E0,3.697834E-1,-9.430468E-3,-1.5448037E0,-1.4101975E0,8.911595E-2,-1.1806723E-1,1.1645988E0,3.2195783E-1,1.544491E0,-1.16301246E-1,1.3713613E0,8.920391E-2,-4.3504038E-1,-1.3591725E0,1.9339752E-1,-2.8083783E-1,3.6872682E-1,-1.5450463E0,-0E0,-4.412907E-1,-1.3430326E-1,-8.894008E-2,4.4017184E-1,-2.1148479E-1,3.0336937E-1,6.429097E-3,1.5448343E0,-3.3747938E-1,2.9013795E-1,1.1554001E-2,1.4709339E0,-4.6415356E-1,3.3078355E-1,-4.3995112E-2,-4.294624E-1,-4.6355918E-1,-1.1508957E-1,1.09352574E-1,4.6352336E-1,1.4328727E-1,4.5539486E-1,-2.7248585E-1,2.2513647E-1],"categories":[],"categories_nodes":[],"categories_segments":[],"categories_sizes":[],"default_left":[0,0,0,0,0,0,0,0,0,0,0,0,0,0,0,0,0,0,0,0,0,0,0,0,0,0,0,0,0,0,0,0,0,0,0,0,0,0,0,0,0,0,0,0,0,0,0,0,0,0,0,0,0,0,0,0,0,0,0],"id":1,"left_children":[1,3,5,7,9,11,13,15,17,19,21,23,-1,25,27,29,31,-1,33,35,-1,-1,37,39,41,43,45,47,-1,49,-1,-1,-1,51,-1,-1,-1,-1,-1,-1,-1,-1,53,-1,-1,-1,55,57,-1,-1,-1,-1,-1,-1,-1,-1,-1,-1,-1],"loss_changes":[3.041225E4,2.884961E1,5.126172E1,5.022461E0,2.251793E1,5.1904297E0,2.6699959E1,8.491627E0,4.2041016E0,5.112898E0,4.869082E0,3.6826172E0,0E0,6.3885117E0,1.04779005E1,8.64843E0,5.766959E0,0E0,2.3867188E0,5.6041718E-2,0E0,0E0,3.9078941E0,3.5875254E0,3.3095703E0,5.7963176E0,2.1644993E0,6.808006E0,0E0,2.9017944E0,0E0,0E0,0E0,5.2246094E-1,0E0,0E0,0E0,0E0,0E0,0E0,0E0,0E0,1.2753906E0,0E0,0E0,0E0,1.5029907E-3,4.978858E0,0E0,0E0,0E0,0E0,0E0,0E0,0E0,0E0,0E0,0E0,0E0],"parents":[2147483647,0,0,1,1,2,2,3,3,4,4,5,5,6,6,7,7,8,8,9,9,10,10,11,11,13,13,14,14,15,15,16,16,18,18,19,19,22,22,23,23,24,24,25,25,26,26,27,27,29,29,33,33,42,42,46,46,47,47],"right_children":[2,4,6,8,10,12,14,16,18,20,22,24,-1,26,28,30,32,-1,34,36,-1,-1,38,40,42,44,46,48,-1,50,-1,-1,-1,52,-1,-1,-1,-1,-1,-1,-1,-1,54,-1,-1,-1,56,58,-1,-1,-1,-1,-1,-1,-1,-1,-1,-1,-1],"split_conditions":[-2.7661413E-1,-2.3248097E-1,-1.0843631E0,-9.790381E-2,2.638723E-1,2.0486684E0,-6.3518023E-1,7.752663E-1,-2.2104701E-2,2.9474618E0,-3.7995866E-1,-4.7312263E-2,-6.6432985E-3,-6.427199E-1,1.1427289E0,-1.661039E-1,-7.8704065E-1,-9.430468E-3,3.3637793E0,2.2081855E-1,8.911595E-2,-1.1806723E-1,-4.664189E-2,-3.885764E-1,-3.3118352E-2,-2.841529E-1,-5.286727E-1,2.0409396E-1,-4.3504038E-1,9.809028E-1,1.9339752E-1,-2.8083783E-1,3.6872682E-1,1.285761E0,-0E0,-4.412907E-1,-1.3430326E-1,-8.894008E-2,4.4017184E-1,-2.1148479E-1,3.0336937E-1,6.429097E-3,-1.7691223E-1,-3.3747938E-1,2.9013795E-1,1.1554001E-2,1.9169211E-2,2.4044135E-1,3.3078355E-1,-4.3995112E-2,-4.294624E-1,-4.6355918E-1,-1.1508957E-1,1.09352574E-1,4.6352336E-1,1.4328727E-1,4.5539486E-1,-2.7248585E-1,2.2513647E-1],"split_indices":[574,1399,1467,702,757,881,238,1449,284,1113,384,357,0,1140,1503,1331,923,0,1414,1089,0,0,165,200,718,1116,1329,271,0,881,0,0,0,1222,0,0,0,0,0,0,0,0,1509,0,0,0,815,586,0,0,0,0,0,0,0,0,0,0,0],"split_type":[0,0,0,0,0,0,0,0,0,0,0,0,0,0,0,0,0,0,0,0,0,0,0,0,0,0,0,0,0,0,0,0,0,0,0,0,0,0,0,0,0,0,0,0,0,0,0,0,0,0,0,0,0,0,0,0,0,0,0],"sum_hessian":[1.286555E4,6.4300503E3,6.4355E3,6.4081606E3,2.1889902E1,6.3995796E3,3.5920464E1,3.9302334E1,6.368858E3,1.290111E1,8.988792E0,6.397491E3,2.0883021E0,1.9044842E1,1.6875622E1,3.618856E1,3.1137729E0,1.8778532E0,6.36698E3,1.1216024E1,1.6850848E0,2.1346986E0,6.854094E0,3.0612864E0,6.3944297E3,3.3086228E0,1.5736219E1,1.0227684E1,6.647937E0,3.4461803E1,1.7267574E0,1.2002794E0,1.9134935E0,6.36598E3,1E0,1.0053049E1,1.1629757E0,1.1796186E0,5.6744757E0,1.220377E0,1.8409095E0,1.454812E0,6.392975E3,1.6936197E0,1.6150031E0,1.190281E0,1.45459385E1,6.965989E0,3.2616956E0,2.111449E0,3.2350353E1,6.364823E3,1.1571939E0,1.6278785E0,6.391347E3,1.1621423E0,1.3383797E1,5.285497E0,1.6804914E0],"tree_param":{"num_deleted":"0","num_feature":"1536","num_nodes":"59","size_leaf_vector":"1"}},{"base_weights":[4.5060846E-5,1.333565E0,-1.3318287E0,1.3396127E0,4.2211106E-1,-1.3367444E0,-2.326832E-1,1.3408903E0,7.2392386E-1,1.0095348E0,-3.8789493E-1,-1.3400398E0,-9.279078E-1,4.791539E-1,-1.2290349E0,1.3411413E0,6.146746E-2,-1.88153E-1,1.0023175E0,1.104425E0,-1.3716787E-1,1.6567414E-1,-9.73868E-1,-1.3437274E-1,-1.3405154E0,-1.0361309E0,3.6520603E-1,-1.473861E-1,1.1392337E0,-3.8812608E-1,-9.257215E-2,8.0711536E-2,1.341399E0,3.7784758E-1,-3.0571477E-2,-2.7323136E-2,1.2053974E0,-5.837333E-1,9.568328E-1,3.599729E-2,-3.7256858E-1,-2.353311E-1,1.7238884E-1,-7.2004044E-1,-1.3411514E0,2.4463405E-1,-1.1447767E0,3.3786157E-1,-1.9060694E-1,3.0208272E-1,-7.0053214E-1,3.8763842E-1,2.5583377E-2,4.0247586E-1,7.5657144E-2,-1.6184269E-2,3.961854E-1,-3.115807E-1,1.74369E-1,4.5270436E-2,3.4273815E-1,-3.5814863E-1,2.790632E-1,-1.6601133E-1,-4.0243945E-1,-2.5062567E-1,3.6611396E-1,-3.6139914E-1,1.6540414E-1,5.105396E-2,-3.5467577E-1],"categories":[],"categories_nodes":[],"categories_segments":[],"categories_sizes":[],"default_left":[0,0,0,0,0,0,0,0,0,0,0,0,0,0,0,0,0,0,0,0,0,0,0,0,0,0,0,0,0,0,0,0,0,0,0,0,0,0,0,0,0,0,0,0,0,0,0,0,0,0,0,0,0,0,0,0,0,0,0,0,0,0,0,0,0,0,0,0,0,0,0],"id":2,"left_children":[1,3,5,7,9,11,13,15,17,19,21,23,25,27,29,31,-1,-1,33,35,-1,37,39,41,43,45,47,49,51,-1,-1,-1,53,-1,-1,-1,55,57,59,-1,-1,-1,-1,61,63,65,67,-1,-1,-1,69,-1,-1,-1,-1,-1,-1,-1,-1,-1,-1,-1,-1,-1,-1,-1,-1,-1,-1,-1,-1],"loss_changes":[1.9077707E4,2.9021484E1,2.8725586E1,3.2226562E0,1.7920517E1,5.963867E0,1.8417492E1,1.2421875E0,5.598738E0,3.5156364E0,5.4189515E0,2.8613281E0,6.8200226E0,6.529281E0,2.4151802E-1,1.1064453E0,0E0,0E0,3.348918E0,2.597643E0,0E0,6.0068355E0,2.5000906E0,1.9271276E0,1.1269531E0,6.2266808E0,3.9852564E0,6.3094945E0,1.1152992E0,0E0,0E0,0E0,7.4609375E-1,0E0,0E0,0E0,2.8390484E0,3.4334843E0,5.5302715E-1,0E0,0E0,0E0,0E0,7.043415E0,5.654297E-1,5.4095354E0,4.683529E0,0E0,0E0,0E0,2.9373004E0,0E0,0E0,0E0,0E0,0E0,0E0,0E0,0E0,0E0,0E0,0E0,0E0,0E0,0E0,0E0,0E0,0E0,0E0,0E0,0E0],"parents":[2147483647,0,0,1,1,2,2,3,3,4,4,5,5,6,6,7,7,8,8,9,9,10,10,11,11,12,12,13,13,14,14,15,15,18,18,19,19,21,21,22,22,23,23,24,24,25,25,26,26,27,27,28,28,32,32,36,36,37,37,38,38,43,43,44,44,45,45,46,46,50,50],"right_children":[2,4,6,8,10,12,14,16,18,20,22,24,26,28,30,32,-1,-1,34,36,-1,38,40,42,44,46,48,50,52,-1,-1,-1,54,-1,-1,-1,56,58,60,-1,-1,-1,-1,62,64,66,68,-1,-1,-1,70,-1,-1,-1,-1,-1,-1,-1,-1,-1,-1,-1,-1,-1,-1,-1,-1,-1,-1,-1,-1],"split_conditions":[-1.224867E-1,-3.9027777E-1,-3.3725655E-1,2.0324796E-1,1.0010547E-1,-1.0321778E-1,-4.538893E-1,2.011953E0,1.8692091E-1,4.005629E-1,-6.6632634E-1,-2.2104701E-2,3.938545E-1,-5.219963E-1,2.6370518E0,-3.0752444E-1,6.146746E-2,-1.88153E-1,2.0242184E-1,-6.769633E-2,-1.3716787E-1,-5.4027706E-1,-2.4481514E-1,2.4977401E-1,-1.0696919E0,-1.5041071E0,1.01388685E-1,3.3980227E-1,-6.8146825E-1,-3.8812608E-1,-9.257215E-2,8.0711536E-2,-9.0946543E-1,3.7784758E-1,-3.0571477E-2,-2.7323136E-2,-5.7678384E-1,1.1415246E-1,-2.223883E0,3.599729E-2,-3.7256858E-1,-2.353311E-1,1.7238884E-1,2.1959104E-1,-4.3198827E-1,1.3941389E0,-3.6153835E-1,3.3786157E-1,-1.9060694E-1,3.0208272E-1,4.4423494E-1,3.8763842E-1,2.5583377E-2,4.0247586E-1,7.5657144E-2,-1.6184269E-2,3.961854E-1,-3.115807E-1,1.74369E-1,4.5270436E-2,3.4273815E-1,-3.5814863E-1,2.790632E-1,-1.6601133E-1,-4.0243945E-1,-2.5062567E-1,3.6611396E-1,-3.6139914E-1,1.6540414E-1,5.105396E-2,-3.5467577E-1],"split_indices":[139,801,1399,640,254,78,623,881,1465,450,1496,284,1456,419,1138,347,0,0,130,1044,0,1279,179,528,904,1042,418,222,243,0,0,0,1027,0,0,0,991,21,902,0,0,0,0,215,296,1374,658,0,0,0,96,0,0,0,0,0,0,0,0,0,0,0,0,0,0,0,0,0,0,0,0],"split_type":[0,0,0,0,0,0,0,0,0,0,0,0,0,0,0,0,0,0,0,0,0,0,0,0,0,0,0,0,0,0,0,0,0,0,0,0,0,0,0,0,0,0,0,0,0,0,0,0,0,0,0,0,0,0,0,0,0,0,0,0,0,0,0,0,0,0,0,0,0,0,0],"sum_hessian":[1.0739467E4,5.3664165E3,5.3730503E3,5.3305767E3,3.583965E1,5.3489126E3,2.4137602E1,5.3183633E3,1.2213528E1,2.0631306E1,1.5208343E1,5.303883E3,4.502971E1,1.4381746E1,9.755855E0,5.317008E3,1.3556089E0,1.8725969E0,1.034093E1,1.9609715E1,1.0215911E0,8.189235E0,7.019108E0,2.2032468E0,5.3016797E3,4.1735516E1,3.2941923E0,7.7768073E0,6.604939E0,8.736064E0,1.0197908E0,1.5282668E0,5.3154795E3,8.273428E0,2.0675027E0,1.5348825E0,1.8074831E1,4.340229E0,3.849006E0,1.490101E0,5.529007E0,1.093892E0,1.1093547E0,6.588099E0,5.2950913E3,3.1656568E0,3.856986E1,1.7997681E0,1.4944241E0,2.2535703E0,5.5232368E0,5.570818E0,1.034121E0,5.3143345E3,1.1452221E0,1.5596676E0,1.6515163E1,3.1994479E0,1.1407812E0,1.0599579E0,2.7890482E0,5.3334417E0,1.2546571E0,2.8085434E0,5.292283E3,1.5707779E0,1.594879E0,3.7534344E1,1.0355152E0,2.1976671E0,3.3255699E0],"tree_param":{"num_deleted":"0","num_feature":"1536","num_nodes":"71","size_leaf_vector":"1"}},{"base_weights":[8.982632E-5,-1.2167424E0,1.2161112E0,-1.3434273E-1,-1.2202638E0,1.2237196E0,3.1309193E-1,-3.2628125E-1,5.600751E-1,-3.0623224E-1,-1.2221935E0,1.2252953E0,5.7602453E-1,1.0147572E0,-2.3287347E-1,1.0223283E0,-3.693508E-1,3.566321E-1,-7.2127503E-1,-1.2239599E0,-7.084789E-1,1.2256638E0,-2.6458537E-3,-1.4807568E-1,8.2377845E-1,-2.6063634E-2,1.1276027E0,1.6555646E-1,-1.1067271E0,3.6384842E-1,1.3127989E-2,-2.883822E-1,1.6126394E-1,1.5490821E-1,-9.8922896E-1,-2.2920234E-2,-1.2243379E0,1.4718565E-1,-8.861557E-1,5.2736793E-2,1.225894E0,-7.268831E-2,1.0620843E0,3.601664E-1,5.259383E-2,7.005034E-1,-5.0181717E-1,-8.65064E-3,-3.9997125E-1,-3.301561E-2,-3.3450437E-1,-1.121994E-1,-3.6747575E-1,-3.4837377E-1,-4.0954202E-3,3.6788857E-1,1.4483483E-1,3.4213966E-1,7.633707E-2,3.1880414E-1,-1.224843E-1,8.688524E-2,-3.2947385E-1],"categories":[],"categories_nodes":[],"categories_segments":[],"categories_sizes":[],"default_left":[0,0,0,0,0,0,0,0,0,0,0,0,0,0,0,0,0,0,0,0,0,0,0,0,0,0,0,0,0,0,0,0,0,0,0,0,0,0,0,0,0,0,0,0,0,0,0,0,0,0,0,0,0,0,0,0,0,0,0,0,0,0,0],"id":3,"left_children":[1,3,5,7,9,11,13,-1,15,17,19,21,23,25,27,29,31,-1,33,35,37,39,-1,-1,41,-1,43,45,47,-1,-1,-1,-1,-1,49,-1,51,-1,53,-1,55,-1,57,-1,-1,59,61,-1,-1,-1,-1,-1,-1,-1,-1,-1,-1,-1,-1,-1,-1,-1,-1],"loss_changes":[1.2714446E4,1.6206055E1,2.9144531E1,1.057243E1,7.1762695E0,3.6430664E0,1.4506868E1,0E0,4.4023275E0,7.281473E0,3.0092773E0,1.9438477E0,3.6474042E0,2.1476707E0,7.7606544E0,1.1626835E0,2.5814185E0,0E0,3.4045458E0,1.7524414E0,4.0590124E0,8.1152344E-1,0E0,0E0,2.8751183E0,0E0,8.3351517E-1,5.998691E0,1.657361E0,0E0,0E0,0E0,0E0,0E0,7.084513E-1,0E0,1.6445312E0,0E0,3.625719E0,0E0,6.748047E-1,0E0,2.546711E-1,0E0,0E0,4.127362E0,3.915209E0,0E0,0E0,0E0,0E0,0E0,0E0,0E0,0E0,0E0,0E0,0E0,0E0,0E0,0E0,0E0,0E0],"parents":[2147483647,0,0,1,1,2,2,3,3,4,4,5,5,6,6,8,8,9,9,10,10,11,11,12,12,13,13,14,14,15,15,16,16,18,18,19,19,20,20,21,21,24,24,26,26,27,27,28,28,34,34,36,36,38,38,40,40,42,42,45,45,46,46],"right_children":[2,4,6,8,10,12,14,-1,16,18,20,22,24,26,28,30,32,-1,34,36,38,40,-1,-1,42,-1,44,46,48,-1,-1,-1,-1,-1,50,-1,52,-1,54,-1,56,-1,58,-1,-1,60,62,-1,-1,-1,-1,-1,-1,-1,-1,-1,-1,-1,-1,-1,-1,-1,-1],"split_conditions":[-2.7661413E-1,-6.4594007E-1,-1.7598823E0,1.394961E-1,-1.9217543E-1,2.0324796E-1,-3.1213355E-1,-3.2628125E-1,-3.210454E-2,1.0959392E0,1.2811732E0,1.8770566E0,1.8692091E-1,-1.6873666E0,1.8669824E-1,3.8794148E-1,-8.96345E-1,3.566321E-1,-2.3417571E-1,-1.6793539E-1,1.4504866E-1,-1.8818511E0,-2.6458537E-3,-1.4807568E-1,4.7982574E-2,-2.6063634E-2,6.1084386E-2,1.6152361E-1,-3.6962304E-1,3.6384842E-1,1.3127989E-2,-2.883822E-1,1.6126394E-1,1.5490821E-1,-2.3027907E-1,-2.2920234E-2,2.1312636E-1,1.4718565E-1,6.373372E-1,5.2736793E-2,4.7966346E-2,-7.268831E-2,1.1741297E-1,3.601664E-1,5.259383E-2,4.5445137E-2,1.1016061E-1,-8.65064E-3,-3.9997125E-1,-3.301561E-2,-3.3450437E-1,-1.121994E-1,-3.6747575E-1,-3.4837377E-1,-4.0954202E-3,3.6788857E-1,1.4483483E-1,3.4213966E-1,7.633707E-2,3.1880414E-1,-1.224843E-1,8.688524E-2,-3.2947385E-1],"split_indices":[574,1524,1121,678,235,640,363,0,761,1196,1061,1422,1465,1377,1378,227,1490,0,1310,512,815,1105,0,0,1189,0,445,512,359,0,0,0,0,0,915,0,30,0,564,0,686,0,187,0,0,1296,1147,0,0,0,0,0,0,0,0,0,0,0,0,0,0,0,0],"split_type":[0,0,0,0,0,0,0,0,0,0,0,0,0,0,0,0,0,0,0,0,0,0,0,0,0,0,0,0,0,0,0,0,0,0,0,0,0,0,0,0,0,0,0,0,0,0,0,0,0,0,0,0,0,0,0,0,0,0,0,0,0,0,0],"sum_hessian":[8.590619E3,4.293878E3,4.296741E3,1.4051156E1,4.2798267E3,4.2604897E3,3.625168E1,5.6832585E0,8.367898E0,9.353149E0,4.2704736E3,4.2492603E3,1.1229425E1,1.5488053E1,2.0763624E1,5.5217032E0,2.8461943E0,1.6273023E0,7.7258472E0,4.2544624E3,1.6011103E1,4.2479985E3,1.2617092E0,1.925286E0,9.304139E0,1.460479E0,1.4027575E1,1.4817974E1,5.945649E0,4.4215593E0,1.1001439E0,1.6858784E0,1.160316E0,1.2100004E0,6.5158467E0,1.467846E0,4.2529946E3,1.8389784E0,1.4172124E1,1.0986229E0,4.2469E3,1.6967794E0,7.60736E0,1.2787278E1,1.2402958E0,8.197477E0,6.620497E0,1.2282226E0,4.7174263E0,1.0502257E0,5.465621E0,3.3448994E0,4.2496494E3,1.0523315E1,3.6488087E0,4.243958E3,2.9418092E0,6.558711E0,1.0486486E0,6.210454E0,1.9870232E0,3.0662003E0,3.554297E0],"tree_param":{"num_deleted":"0","num_feature":"1536","num_nodes":"63","size_leaf_vector":"1"}},{"base_weights":[1.3246108E-4,1.1437603E0,-1.1410438E0,1.1506984E0,2.9257903E-1,-5.4682183E-1,-1.1513499E0,1.153627E0,7.2422844E-1,7.182906E-1,-3.9857808E-1,5.2869654E-1,-7.737724E-1,5.5746537E-2,-1.1520224E0,2.4257567E-2,1.1539865E0,9.030205E-1,-2.672471E-1,9.991092E-1,1.3144909E-1,4.9482673E-2,-8.945948E-1,8.7638366E-1,-2.1981464E-1,-2.4670037E-2,-9.1423595E-1,-4.0132117E-2,-1.1527047E0,1.154276E0,3.561287E-2,1.0217311E0,-1.2229292E-1,-5.2542365E-1,6.342239E-1,4.835052E-2,3.37508E-1,2.4518292E-1,-7.4807304E-1,-2.4193093E-1,3.837627E-1,-5.4763082E-2,-3.12461E-1,-5.0785694E-2,1.083879E0,2.3362236E-1,-2.3641147E-1,-6.999625E-1,1.1775966E0,-9.849057E-1,1.4482552E-1,1.6277267E-1,-1.8356216E-1,-1.153905E0,-6.045371E-1,3.46366E-1,5.723757E-2,2.7727751E-2,3.3557454E-1,2.1826161E-1,5.8861587E-2,-3.740351E-2,-2.875427E-1,2.1066996E-1,-1.3227518E-1,3.498541E-1,9.4569854E-2,1.23187885E-1,-2.9687983E-1,5.089058E-1,-1.2683029E-2,-3.1890994E-1,1.6445838E-1,-3.463522E-1,-1.21009275E-1,1.5281615E-1,-2.8916338E-1],"categories":[],"categories_nodes":[],"categories_segments":[],"categories_sizes":[],"default_left":[0,0,0,0,0,0,0,0,0,0,0,0,0,0,0,0,0,0,0,0,0,0,0,0,0,0,0,0,0,0,0,0,0,0,0,0,0,0,0,0,0,0,0,0,0,0,0,0,0,0,0,0,0,0,0,0,0,0,0,0,0,0,0,0,0,0,0,0,0,0,0,0,0,0,0,0,0],"id":4,"left_children":[1,3,5,7,9,11,13,15,17,19,21,23,25,-1,27,-1,29,31,33,35,37,39,41,43,45,47,49,51,53,55,-1,57,-1,-1,59,-1,-1,-1,61,-1,63,-1,-1,-1,65,-1,-1,67,69,71,-1,-1,-1,73,75,-1,-1,-1,-1,-1,-1,-1,-1,-1,-1,-1,-1,-1,-1,-1,-1,-1,-1,-1,-1,-1,-1],"loss_changes":[8.760795E3,1.9463379E1,1.9947754E1,3.317871E0,8.6569805E0,1.4855967E1,3.1831055E0,1.1796875E0,4.7379646E0,2.828762E0,2.5971901E0,3.0312083E0,5.1627254E0,0E0,2.4575195E0,0E0,8.520508E-1,3.7957897E0,7.3282504E0,1.0845222E0,4.8126497E0,2.3073776E0,3.8577175E-1,1.8429289E0,3.0302253E0,7.976175E0,4.569641E0,1.3515168E0,1.472168E0,6.6064453E-1,0E0,1.7147503E0,0E0,0E0,5.428672E-3,0E0,0E0,0E0,3.492347E-1,0E0,1.8064369E0,0E0,0E0,0E0,4.4646263E-2,0E0,0E0,2.422546E0,2.3125901E0,5.350189E0,0E0,0E0,0E0,1.0209961E0,4.216086E0,0E0,0E0,0E0,0E0,0E0,0E0,0E0,0E0,0E0,0E0,0E0,0E0,0E0,0E0,0E0,0E0,0E0,0E0,0E0,0E0,0E0,0E0],"parents":[2147483647,0,0,1,1,2,2,3,3,4,4,5,5,6,6,7,7,8,8,9,9,10,10,11,11,12,12,14,14,16,16,17,17,18,18,19,19,20,20,21,21,22,22,23,23,24,24,25,25,26,26,27,27,28,28,29,29,31,31,34,34,38,38,40,40,44,44,47,47,48,48,49,49,53,53,54,54],"right_children":[2,4,6,8,10,12,14,16,18,20,22,24,26,-1,28,-1,30,32,34,36,38,40,42,44,46,48,50,52,54,56,-1,58,-1,-1,60,-1,-1,-1,62,-1,64,-1,-1,-1,66,-1,-1,68,70,72,-1,-1,-1,74,76,-1,-1,-1,-1,-1,-1,-1,-1,-1,-1,-1,-1,-1,-1,-1,-1,-1,-1,-1,-1,-1,-1],"split_conditions":[-1.224867E-1,-3.9027777E-1,-5.073954E-2,3.8842328E-2,2.2363015E-1,-4.3519437E-1,-2.376366E0,-1.8268085E-1,4.1361116E-2,-1.2052572E0,2.3169199E-1,-4.6460125E-1,-1.9743934E-1,5.5746537E-2,2.1312636E-1,2.4257567E-2,8.42931E-1,-9.810614E-1,-3.2898673E-1,-2.0915502E-1,-3.454506E-1,-4.8484053E-2,1.1771005E-1,-2.564008E0,1.6391808E-1,-1.9250332E-1,5.767781E-1,4.5153865E-1,2.3212526E0,1.8933187E-1,3.561287E-2,1.821614E-1,-1.2229292E-1,-5.2542365E-1,-2.4849112E-1,4.835052E-2,3.37508E-1,2.4518292E-1,-1.8097167E-1,-2.4193093E-1,5.4081935E-1,-5.4763082E-2,-3.12461E-1,-5.0785694E-2,3.869306E-1,2.3362236E-1,-2.3641147E-1,-2.0072469E-1,3.922842E-1,-1.5886775E-1,1.4482552E-1,1.6277267E-1,-1.8356216E-1,-4.1323176E-1,5.989043E-2,3.46366E-1,5.723757E-2,2.7727751E-2,3.3557454E-1,2.1826161E-1,5.8861587E-2,-3.740351E-2,-2.875427E-1,2.1066996E-1,-1.3227518E-1,3.498541E-1,9.4569854E-2,1.23187885E-1,-2.9687983E-1,5.089058E-1,-1.2683029E-2,-3.1890994E-1,1.6445838E-1,-3.463522E-1,-1.21009275E-1,1.5281615E-1,-2.8916338E-1],"split_indices":[139,801,235,641,449,1175,980,530,149,1330,193,308,1043,0,30,0,1117,1091,365,667,345,1083,254,1151,299,514,1310,304,1500,204,0,1465,0,0,69,0,0,0,1431,0,702,0,0,0,1100,0,0,8,591,1216,0,0,0,1490,474,0,0,0,0,0,0,0,0,0,0,0,0,0,0,0,0,0,0,0,0,0,0],"split_type":[0,0,0,0,0,0,0,0,0,0,0,0,0,0,0,0,0,0,0,0,0,0,0,0,0,0,0,0,0,0,0,0,0,0,0,0,0,0,0,0,0,0,0,0,0,0,0,0,0,0,0,0,0,0,0,0,0,0,0,0,0,0,0,0,0,0,0,0,0,0,0,0,0,0,0,0,0],"sum_hessian":[6.710836E3,3.3518164E3,3.3590195E3,3.3243674E3,2.7449116E1,5.8186794E1,3.3008328E3,3.300001E3,2.4366314E1,1.696217E1,1.0486945E1,9.90717E0,4.8279625E1,1.5208114E0,3.299312E3,1.1811355E0,3.2988198E3,2.0719244E1,3.6470711E0,1.0997208E1,5.964963E0,5.982808E0,4.504137E0,6.648209E0,3.2589617E0,7.809045E0,4.047058E1,2.060194E0,3.2972517E3,3.297783E3,1.0370138E0,1.9200634E1,1.5186098E0,1.0218608E0,2.6252105E0,1.7345138E0,9.262694E0,3.3912957E0,2.573667E0,1.2836312E0,4.699177E0,1.1540619E0,3.3500752E0,1.1312816E0,5.5169272E0,1.0475637E0,2.211398E0,5.2679343E0,2.5411105E0,3.880264E1,1.6679397E0,1.0455765E0,1.0146174E0,3.2889456E3,8.306271E0,3.2966357E3,1.147128E0,1.9966466E0,1.7203987E1,1.6192672E0,1.0059432E0,1.0513194E0,1.5223477E0,3.4971457E0,1.2020311E0,4.5161786E0,1.000749E0,1.0032657E0,4.2646685E0,1.508863E0,1.0322475E0,3.721287E1,1.5897712E0,3.2857708E3,3.1748505E0,1.9241177E0,6.382153E0],"tree_param":{"num_deleted":"0","num_feature":"1536","num_nodes":"77","size_leaf_vector":"1"}},{"base_weights":[2.0787466E-4,-1.0915544E0,1.0916705E0,-5.0891864E-1,-1.1019953E0,1.1019024E0,2.622663E-1,1.8096025E-1,-7.6481473E-1,9.3079284E-2,-1.102742E0,1.1047403E0,4.8260295E-1,8.8562256E-1,-2.360316E-1,2.8802782E-1,-1.688266E-1,-9.3810123E-1,9.6698694E-2,4.5831494E-2,-1.1035831E0,1.1052529E0,-1.8929302E-3,6.717409E-1,-2.4015777E-1,-2.0218613E-2,1.0122883E0,-8.4038967E-1,1.9402607E-1,-4.6602365E-1,6.750731E-1,1.2819247E-1,-1.0224774E0,-5.019466E-1,3.8793734E-1,-4.7653124E-1,-1.1051242E0,1.1075323E0,7.733022E-1,-7.439994E-2,8.2147694E-1,3.1732088E-1,7.010163E-2,-3.591442E-1,-9.696933E-2,7.364743E-1,-4.2070857E-1,-2.0955959E-1,1.5062678E-1,2.5695664E-1,4.6161253E-2,5.653337E-2,-3.2521784E-1,-2.6406974E-1,1.626752E-1,-2.928984E-1,1.5190001E-1,-3.3171463E-1,-2.18001E-2,1.6279113E-1,3.324663E-1,-2.2452988E-1,3.007084E-1,3.122775E-1,6.0421503E-3,-1.7712538E-1,1.2858191E-1,2.9502124E-1,-2.2773702E-2,1.0706624E-1,-2.3703824E-1],"categories":[],"categories_nodes":[],"categories_segments":[],"categories_sizes":[],"default_left":[0,0,0,0,0,0,0,0,0,0,0,0,0,0,0,0,0,0,0,0,0,0,0,0,0,0,0,0,0,0,0,0,0,0,0,0,0,0,0,0,0,0,0,0,0,0,0,0,0,0,0,0,0,0,0,0,0,0,0,0,0,0,0,0,0,0,0,0,0,0,0],"id":5,"left_children":[1,3,5,7,9,11,13,15,17,-1,19,21,23,25,27,-1,29,31,33,-1,35,37,-1,39,-1,-1,41,43,45,47,49,-1,51,53,-1,55,57,59,61,-1,63,-1,-1,-1,65,67,69,-1,-1,-1,-1,-1,-1,-1,-1,-1,-1,-1,-1,-1,-1,-1,-1,-1,-1,-1,-1,-1,-1,-1,-1],"loss_changes":[6.1597207E3,1.5159912E1,2.164795E1,8.497934E0,3.0183105E0,3.9538574E0,1.0401234E1,3.8741684E0,5.2758045E0,0E0,2.8476562E0,1.4538574E0,3.7950504E0,1.853303E0,5.107865E0,0E0,2.8855846E0,3.7790108E0,5.4641356E0,0E0,1.9230957E0,1.0654297E0,0E0,1.8895698E0,0E0,0E0,2.1693611E-1,2.031479E0,4.287336E0,2.1903543E0,1.5932083E-1,0E0,2.2636166E0,2.5317743E0,0E0,4.411351E0,1.4626465E0,3.7890625E-1,7.942155E0,0E0,1.871067E0,0E0,0E0,0E0,1.2162272E0,1.4187021E0,2.0709844E0,0E0,0E0,0E0,0E0,0E0,0E0,0E0,0E0,0E0,0E0,0E0,0E0,0E0,0E0,0E0,0E0,0E0,0E0,0E0,0E0,0E0,0E0,0E0,0E0],"parents":[2147483647,0,0,1,1,2,2,3,3,4,4,5,5,6,6,7,7,8,8,10,10,11,11,12,12,13,13,14,14,16,16,17,17,18,18,20,20,21,21,23,23,26,26,27,27,28,28,29,29,30,30,32,32,33,33,35,35,36,36,37,37,38,38,40,40,44,44,45,45,46,46],"right_children":[2,4,6,8,10,12,14,16,18,-1,20,22,24,26,28,-1,30,32,34,-1,36,38,-1,40,-1,-1,42,44,46,48,50,-1,52,54,-1,56,58,60,62,-1,64,-1,-1,-1,66,68,70,-1,-1,-1,-1,-1,-1,-1,-1,-1,-1,-1,-1,-1,-1,-1,-1,-1,-1,-1,-1,-1,-1,-1,-1],"split_conditions":[-2.7661413E-1,-5.073954E-2,-1.8884866E0,-2.235455E0,1.0031096E-1,4.4814E-1,-3.1213355E-1,-7.0816463E-1,9.456076E-1,9.3079284E-2,-2.3751876E0,5.2341884E-1,-8.157916E-1,-3.544851E0,-4.9005342E-1,2.8802782E-1,1.5042938E-1,-3.023048E-1,1.5674406E0,4.5831494E-2,-3.265836E0,1.4469173E0,-1.8929302E-3,-5.5264765E-1,-2.4015777E-1,-2.0218613E-2,6.239634E-1,2.2523E-1,-6.089525E-1,-7.246489E-2,-1.3975305E-2,1.2819247E-1,-2.828934E-1,-1.7689979E-1,3.8793734E-1,3.9623803E-1,1.1668795E0,2.5962323E-1,-3.0059847E-1,-7.439994E-2,-3.197053E-1,3.1732088E-1,7.010163E-2,-3.591442E-1,1.7059088E-1,-2.2715926E-1,-1.4607742E-1,-2.0955959E-1,1.5062678E-1,2.5695664E-1,4.6161253E-2,5.653337E-2,-3.2521784E-1,-2.6406974E-1,1.626752E-1,-2.928984E-1,1.5190001E-1,-3.3171463E-1,-2.18001E-2,1.6279113E-1,3.324663E-1,-2.2452988E-1,3.007084E-1,3.122775E-1,6.0421503E-3,-1.7712538E-1,1.2858191E-1,2.9502124E-1,-2.2773702E-2,1.0706624E-1,-2.3703824E-1],"split_indices":[574,235,1121,1060,642,580,363,1431,1158,0,1020,862,1019,875,1000,0,366,1310,1054,0,1502,1015,0,927,0,0,146,53,1038,307,231,0,275,866,0,732,1305,707,691,0,761,0,0,0,1045,517,348,0,0,0,0,0,0,0,0,0,0,0,0,0,0,0,0,0,0,0,0,0,0,0,0],"split_type":[0,0,0,0,0,0,0,0,0,0,0,0,0,0,0,0,0,0,0,0,0,0,0,0,0,0,0,0,0,0,0,0,0,0,0,0,0,0,0,0,0,0,0,0,0,0,0,0,0,0,0,0,0,0,0,0,0,0,0,0,0,0,0,0,0,0,0,0,0,0,0],"sum_hessian":[5.167208E3,2.5832493E3,2.5839587E3,4.6352787E1,2.5368965E3,2.552146E3,3.1812744E1,1.2620794E1,3.373199E1,1.1215107E0,2.5357751E3,2.539724E3,1.2421759E1,1.3787582E1,1.8025162E1,3.369844E0,9.250951E0,2.8009256E1,5.722736E0,1.5766844E0,2.5341982E3,2.538558E3,1.1661042E0,1.12412405E1,1.1805185E0,1.6724203E0,1.2115162E1,7.097269E0,1.0927892E1,7.1727047E0,2.0782456E0,1.393572E0,2.6615685E1,4.2011194E0,1.5216166E0,6.973829E0,2.5272246E3,2.518925E3,1.9632904E1,1.4819912E0,9.759249E0,1.1108288E1,1.0068742E0,4.383406E0,2.7138631E0,5.7000623E0,5.22783E0,6.0081973E0,1.1645074E0,1.0643494E0,1.0138961E0,1.1883552E0,2.5427328E1,3.199168E0,1.0019512E0,4.6273994E0,2.3464293E0,2.5257075E3,1.5169859E0,4.0275946E0,2.5148975E3,2.2719526E0,1.7360952E1,7.4264984E0,2.3327503E0,1.3360803E0,1.3777828E0,4.209919E0,1.4901432E0,1.6946516E0,3.5331783E0],"tree_param":{"num_deleted":"0","num_feature":"1536","num_nodes":"71","size_leaf_vector":"1"}},{"base_weights":[4.751792E-4,-1.0539782E0,1.0548743E0,-4.5209184E-1,-1.0671623E0,4.0433177E-1,1.0704695E0,1.9304438E-1,-6.6348886E-1,-1.0687497E0,1.5822625E-1,7.3060334E-1,-1.98212E-1,1.0711975E0,-4.860515E-2,-3.9442423E-1,6.4458525E-1,-7.401972E-1,2.2043915E-1,7.054138E-2,-1.0696964E0,2.1866111E-1,-1.7685348E-1,-3.7267306E-1,8.249935E-1,6.022269E-2,-8.1219226E-1,1.0741395E0,6.547922E-1,2.0782316E-1,-2.5444144E-1,-6.515695E-2,8.833328E-1,-3.4559014E-1,-9.803062E-1,-1.0716811E0,-3.8446277E-1,9.6916854E-2,-2.7215096E-1,2.1779163E-1,9.6466696E-1,6.4432037E-1,-3.000258E-1,-1.7270256E-2,-2.926085E-1,1.0751537E0,5.413159E-1,9.40356E-1,-7.5817424E-1,3.1829104E-1,1.6523544E-2,3.8727887E-2,-2.5678816E-1,-1.5884735E-2,-3.1496584E-1,-3.2181162E-1,-8.442797E-2,1.810348E-1,-2.4329896E-1,-2.0308502E-1,2.5555342E-1,-2.209071E-2,3.0894595E-1,2.7235043E-1,-2.6200617E-2,-1.9395852E-1,1.4216955E-1,3.2268602E-1,4.5444623E-2,2.5647926E-1,-1.3709942E-1,1.4708216E-2,3.0186895E-1,-5.76463E-1,1.8337473E-1],"categories":[],"categories_nodes":[],"categories_segments":[],"categories_sizes":[],"default_left":[0,0,0,0,0,0,0,0,0,0,0,0,0,0,0,0,0,0,0,0,0,0,0,0,0,0,0,0,0,0,0,0,0,0,0,0,0,0,0,0,0,0,0,0,0,0,0,0,0,0,0,0,0,0,0,0,0,0,0,0,0,0,0,0,0,0,0,0,0,0,0,0,0,0,0],"id":6,"left_children":[1,3,5,7,9,11,13,15,17,19,21,23,25,27,-1,29,31,33,-1,-1,35,-1,-1,37,39,41,43,45,47,-1,-1,-1,49,51,53,55,57,-1,-1,59,61,63,65,-1,-1,67,69,71,73,-1,-1,-1,-1,-1,-1,-1,-1,-1,-1,-1,-1,-1,-1,-1,-1,-1,-1,-1,-1,-1,-1,-1,-1,-1,-1],"loss_changes":[4.386491E3,1.5171143E1,1.9581055E1,6.131277E0,3.9226074E0,9.540163E0,1.9018555E0,3.3415513E0,4.124197E0,2.6306152E0,1.8665462E0,3.5582829E0,2.8375156E0,1.654541E0,0E0,3.388466E0,1.6238871E0,2.7066174E0,0E0,0E0,2.2072754E0,0E0,0E0,1.46409E0,2.2551098E0,2.9917662E0,5.933814E-1,4.4995117E-1,7.1952806E0,0E0,0E0,0E0,7.7248764E-1,3.4303765E0,1.1986732E0,1.2521973E0,3.4904141E0,0E0,0E0,4.3932643E0,1.6547375E0,1.1187065E0,2.6952763E0,0E0,0E0,6.57959E-1,2.1572924E0,7.615776E-1,6.3596473E0,0E0,0E0,0E0,0E0,0E0,0E0,0E0,0E0,0E0,0E0,0E0,0E0,0E0,0E0,0E0,0E0,0E0,0E0,0E0,0E0,0E0,0E0,0E0,0E0,0E0,0E0],"parents":[2147483647,0,0,1,1,2,2,3,3,4,4,5,5,6,6,7,7,8,8,9,9,10,10,11,11,12,12,13,13,15,15,16,16,17,17,20,20,23,23,24,24,25,25,26,26,27,27,28,28,32,32,33,33,34,34,35,35,36,36,39,39,40,40,41,41,42,42,45,45,46,46,47,47,48,48],"right_children":[2,4,6,8,10,12,14,16,18,20,22,24,26,28,-1,30,32,34,-1,-1,36,-1,-1,38,40,42,44,46,48,-1,-1,-1,50,52,54,56,58,-1,-1,60,62,64,66,-1,-1,68,70,72,74,-1,-1,-1,-1,-1,-1,-1,-1,-1,-1,-1,-1,-1,-1,-1,-1,-1,-1,-1,-1,-1,-1,-1,-1,-1,-1],"split_conditions":[-2.7661413E-1,4.3109745E-1,4.507312E-1,-5.405577E-1,1.5789592E0,-5.1447034E-1,2.8845665E0,1.1379877E-1,8.7799124E-2,2.1312636E-1,6.952567E-1,-3.1193313E-1,7.3174596E-1,1.4469173E0,-4.860515E-2,-6.153047E-1,-1.0049267E0,3.4379566E-1,2.2043915E-1,7.054138E-2,2.3212526E0,2.1866111E-1,-1.7685348E-1,5.944425E-1,-2.989255E0,1.294124E-1,-2.2638239E-1,4.017324E-1,7.2832435E-1,2.0782316E-1,-2.5444144E-1,-6.515695E-2,2.9615864E-1,2.705958E-1,-1.1945469E0,-7.630327E-2,9.619826E-2,9.6916854E-2,-2.7215096E-1,-2.3863101E-2,4.2256057E-1,4.9544963E-1,2.4041304E-1,-1.7270256E-2,-2.926085E-1,7.8223324E-1,2.505413E-1,-2.4608774E0,1.0719588E-1,3.1829104E-1,1.6523544E-2,3.8727887E-2,-2.5678816E-1,-1.5884735E-2,-3.1496584E-1,-3.2181162E-1,-8.442797E-2,1.810348E-1,-2.4329896E-1,-2.0308502E-1,2.5555342E-1,-2.209071E-2,3.0894595E-1,2.7235043E-1,-2.6200617E-2,-1.9395852E-1,1.4216955E-1,3.2268602E-1,4.5444623E-2,2.5647926E-1,-1.3709942E-1,1.4708216E-2,3.0186895E-1,-5.76463E-1,1.8337473E-1],"split_indices":[574,124,173,928,1210,910,1287,630,736,30,272,1249,1043,1015,0,571,809,1115,0,0,1500,0,0,819,1351,145,347,938,452,0,0,0,1347,75,1081,754,1094,0,0,303,995,281,454,0,0,1117,1094,1062,175,0,0,0,0,0,0,0,0,0,0,0,0,0,0,0,0,0,0,0,0,0,0,0,0,0,0],"split_type":[0,0,0,0,0,0,0,0,0,0,0,0,0,0,0,0,0,0,0,0,0,0,0,0,0,0,0,0,0,0,0,0,0,0,0,0,0,0,0,0,0,0,0,0,0,0,0,0,0,0,0,0,0,0,0,0,0,0,0,0,0,0,0,0,0,0,0,0,0,0,0,0,0,0,0],"sum_hessian":[3.943344E3,1.9716216E3,1.9717225E3,4.3018177E1,1.9286034E3,4.6790886E1,1.9249316E3,1.0638544E1,3.237963E1,1.9262358E3,2.36746E0,3.0216444E1,1.657444E1,1.9239259E3,1.005731E0,4.6783543E0,5.96019E0,3.1141865E1,1.2377659E0,1.2181733E0,1.9250177E3,1.3570476E0,1.0104125E0,2.149055E0,2.8067389E1,1.2299351E1,4.27509E0,1.9088604E3,1.50655575E1,1.2224197E0,3.4559348E0,1.3125931E0,4.647597E0,1.2703543E1,1.8438322E1,1.9188958E3,6.121919E0,1.1055721E0,1.0434829E0,5.727508E0,2.233988E1,4.391134E0,7.9082165E0,1.0005516E0,3.2745388E0,1.9042179E3,4.6425076E0,1.2810921E1,2.2546365E0,3.5954933E0,1.0521038E0,6.968951E0,5.7345915E0,1.4097837E0,1.702854E1,1.9160549E3,2.840812E0,1.72102E0,4.400899E0,2.3473701E0,3.380138E0,1.3113577E0,2.1028522E1,3.0513573E0,1.3397766E0,5.576229E0,2.3319874E0,1.9030924E3,1.1254982E0,3.642014E0,1.0004934E0,1.0016738E0,1.1809247E1,1.0010422E0,1.2535942E0],"tree_param":{"num_deleted":"0","num_feature":"1536","num_nodes":"75","size_leaf_vector":"1"}},{"base_weights":[5.8022974E-4,1.0258967E0,-1.0247387E0,1.040346E0,1.4480433E-1,-1.0432962E0,-4.372699E-1,1.0470219E0,5.1557356E-1,7.2414184E-1,-2.3073386E-1,-1.045649E0,-6.962439E-3,2.2353874E-1,-6.0727453E-1,1.05077E0,5.7359284E-1,-2.2148098E-1,6.745006E-1,-5.128061E-2,8.856361E-1,-9.839604E-1,7.41873E-2,-1.0469273E0,2.3434542E-2,-2.2269154E-1,2.7596444E-1,4.9735844E-1,-4.459696E-1,-7.430586E-1,1.2135874E-1,1.0521103E0,4.1173404E-1,2.9198247E-1,-4.8469067E-1,8.53226E-1,-4.286519E-1,2.8750247E-1,5.2014813E-2,-3.385196E-1,-9.104513E-2,3.3245787E-1,-2.2429167E-1,-5.088942E-1,-1.0495896E0,-1.0835711E-1,8.055924E-1,2.86966E-2,-2.085558E-1,-8.201779E-1,1.18474536E-1,-5.9387624E-1,9.557232E-1,3.1583914E-1,8.942057E-2,2.3309574E-1,-1.386327E-1,-4.7382522E-1,2.0639972E-1,2.8243545E-1,-7.492185E-2,-3.448578E-1,1.6550235E-1,2.2864644E-1,-1.6800085E-2,-2.4145126E-1,2.5358534E-1,-3.151293E-1,1.4801725E-2,3.0181938E-1,-3.2770917E-2,2.9413482E-2,-2.7950418E-1,-2.2662286E-1,-9.338432E-3,-7.344041E-3,4.1282812E-1],"categories":[],"categories_nodes":[],"categories_segments":[],"categories_sizes":[],"default_left":[0,0,0,0,0,0,0,0,0,0,0,0,0,0,0,0,0,0,0,0,0,0,0,0,0,0,0,0,0,0,0,0,0,0,0,0,0,0,0,0,0,0,0,0,0,0,0,0,0,0,0,0,0,0,0,0,0,0,0,0,0,0,0,0,0,0,0,0,0,0,0,0,0,0,0,0,0],"id":7,"left_children":[1,3,5,7,9,11,13,15,17,19,21,23,25,27,29,31,33,-1,35,-1,37,39,41,43,-1,-1,-1,45,47,49,51,53,55,-1,57,59,61,-1,-1,-1,-1,63,-1,65,67,-1,69,-1,-1,71,-1,73,75,-1,-1,-1,-1,-1,-1,-1,-1,-1,-1,-1,-1,-1,-1,-1,-1,-1,-1,-1,-1,-1,-1,-1,-1],"loss_changes":[3.1498884E3,1.8922241E1,1.5876465E1,4.623413E0,5.6787343E0,3.5318604E0,5.4827585E0,1.9779053E0,4.579669E0,1.6265082E0,3.77733E0,2.1623535E0,3.6099212E0,2.1412754E0,3.8622503E0,8.0163574E-1,6.2350116E0,0E0,4.0529833E0,0E0,2.8990412E-1,1.21248245E-1,2.8827934E0,1.5379639E0,0E0,0E0,0E0,2.3826036E0,5.479054E-1,3.1565742E0,4.6545486E0,4.309082E-1,1.8464997E0,0E0,6.738852E0,1.8337774E0,2.9472234E0,0E0,0E0,0E0,0E0,1.7344652E0,0E0,4.3128757E0,1.3823242E0,0E0,1.2332888E0,0E0,0E0,3.219595E0,0E0,3.6775434E-1,1.494092E0,0E0,0E0,0E0,0E0,0E0,0E0,0E0,0E0,0E0,0E0,0E0,0E0,0E0,0E0,0E0,0E0,0E0,0E0,0E0,0E0,0E0,0E0,0E0,0E0],"parents":[2147483647,0,0,1,1,2,2,3,3,4,4,5,5,6,6,7,7,8,8,9,9,10,10,11,11,12,12,13,13,14,14,15,15,16,16,18,18,20,20,21,21,22,22,23,23,27,27,28,28,29,29,30,30,31,31,32,32,34,34,35,35,36,36,41,41,43,43,44,44,46,46,49,49,51,51,52,52],"right_children":[2,4,6,8,10,12,14,16,18,20,22,24,26,28,30,32,34,-1,36,-1,38,40,42,44,-1,-1,-1,46,48,50,52,54,56,-1,58,60,62,-1,-1,-1,-1,64,-1,66,68,-1,70,-1,-1,72,-1,74,76,-1,-1,-1,-1,-1,-1,-1,-1,-1,-1,-1,-1,-1,-1,-1,-1,-1,-1,-1,-1,-1,-1,-1,-1],"split_conditions":[3.8716593E-1,-1.8884866E0,-1.6657807E-1,7.597942E-2,-3.1213355E-1,1.3266975E0,-5.405577E-1,1.4469173E0,-3.4187615E-1,-1.7376287E-1,-6.883976E-1,8.9989346E-1,3.1124094E-1,3.0702913E-1,2.8633332E-1,4.017324E-1,9.1223454E-1,-2.2148098E-1,1.9462441E0,-5.128061E-2,5.3621203E-2,-1.1351939E-2,2.1929674E-1,-5.3235877E-1,2.3434542E-2,-2.2269154E-1,2.7596444E-1,-3.0817086E-1,8.4119385E-1,7.5366914E-2,1.863439E-1,3.3754551E0,2.1886733E0,2.9198247E-1,-1.2736048E0,-4.0434006E-1,4.2696086E-1,2.8750247E-1,5.2014813E-2,-3.385196E-1,-9.104513E-2,-1.6658258E-1,-2.2429167E-1,2.2655931E-1,7.186056E-2,-1.0835711E-1,1.5328023E-1,2.86966E-2,-2.085558E-1,-6.0210526E-2,1.18474536E-1,3.196552E-1,-5.140239E-1,3.1583914E-1,8.942057E-2,2.3309574E-1,-1.386327E-1,-4.7382522E-1,2.0639972E-1,2.8243545E-1,-7.492185E-2,-3.448578E-1,1.6550235E-1,2.2864644E-1,-1.6800085E-2,-2.4145126E-1,2.5358534E-1,-3.151293E-1,1.4801725E-2,3.0181938E-1,-3.2770917E-2,2.9413482E-2,-2.7950418E-1,-2.2662286E-1,-9.338432E-3,-7.344041E-3,4.1282812E-1],"split_indices":[86,1121,178,286,363,909,928,1015,1249,601,1445,1443,244,1347,760,938,1378,0,1252,0,671,669,748,129,0,0,0,547,808,501,474,1067,883,0,869,215,1477,0,0,0,0,987,0,562,351,0,363,0,0,1100,0,494,143,0,0,0,0,0,0,0,0,0,0,0,0,0,0,0,0,0,0,0,0,0,0,0,0],"split_type":[0,0,0,0,0,0,0,0,0,0,0,0,0,0,0,0,0,0,0,0,0,0,0,0,0,0,0,0,0,0,0,0,0,0,0,0,0,0,0,0,0,0,0,0,0,0,0,0,0,0,0,0,0,0,0,0,0,0,0,0,0,0,0,0,0,0,0,0,0,0,0,0,0,0,0,0,0],"sum_hessian":[2.9942515E3,1.4971272E3,1.4971241E3,1.4727937E3,2.4333542E1,1.4505277E3,4.6596436E1,1.4533103E3,1.9483334E1,9.204937E0,1.5128605E1,1.447233E3,3.2947662E0,9.470329E0,3.7126106E1,1.4406848E3,1.2625504E1,1.7816659E0,1.7701668E1,1.3980155E0,7.8069215E0,3.7178106E0,1.1410794E1,1.4456569E3,1.5760833E0,1.9482006E0,1.3465657E0,6.90387E0,2.5664592E0,3.1277588E1,5.848518E0,1.4370245E3,3.6603231E0,9.222694E0,3.4028091E0,1.5428588E1,2.27308E0,6.770314E0,1.0366073E0,2.5238497E0,1.1939609E0,9.135346E0,2.275448E0,8.064173E0,1.4375928E3,1.778438E0,5.125432E0,1.0029379E0,1.5635213E0,2.9554008E1,1.7235788E0,3.3042629E0,2.544255E0,1.435321E3,1.7034526E0,2.6595263E0,1.0007968E0,1.5805265E0,1.8222827E0,1.4421462E1,1.0071266E0,1.2104163E0,1.0626639E0,3.8806865E0,5.25466E0,6.9508023E0,1.1133704E0,1.4365369E3,1.055844E0,4.122347E0,1.0030851E0,3.2132907E0,2.6340717E1,2.301324E0,1.002939E0,1.0462996E0,1.4979554E0],"tree_param":{"num_deleted":"0","num_feature":"1536","num_nodes":"77","size_leaf_vector":"1"}},{"base_weights":[6.916001E-4,-9.987551E-1,1.0027202E0,-1.0265887E0,-4.1465104E-1,2.8820452E-1,1.0244439E0,-3.4969684E-1,-1.0300586E0,5.8169556E-1,-5.4544365E-1,1.4329227E-2,8.2721615E-1,1.0273956E0,2.3846494E-1,-2.538482E-1,2.0562635E-1,-1.0316414E0,-3.5228801E-3,-5.5062855E-3,1.1058474E0,-5.947461E-1,2.6227057E-1,-6.75173E-1,2.1408568E-1,-6.0180318E-2,2.9081997E-1,1.0321112E0,5.077344E-1,-1.865704E-1,2.0342799E-1,-1.0331079E0,-2.3345816E-1,-1.6150627E-1,1.5814036E-1,4.1658664E-1,6.1919346E-2,-8.312704E-1,-2.1774834E-1,-4.6248913E-1,-3.4664143E-2,6.44342E-1,-1.21254206E-1,1.0338546E0,3.555066E-1,-5.858657E-1,8.424389E-1,-3.1020352E-1,-1.5258653E-2,-1.8902119E-1,9.958505E-2,-2.7430832E-1,1.7861202E-1,1.7011695E-1,-1.2426484E-1,1.9563712E-1,-1.87564E-1,2.9101402E-1,-1.3856047E-3,-1.4145988E-1,1.4816919E-1,4.3387137E-2,3.1039196E-1,-1.3895242E-1,2.2312652E-1,1.6484727E-1,-3.9564934E-1,2.8058666E-1,9.947958E-3],"categories":[],"categories_nodes":[],"categories_segments":[],"categories_sizes":[],"default_left":[0,0,0,0,0,0,0,0,0,0,0,0,0,0,0,0,0,0,0,0,0,0,0,0,0,0,0,0,0,0,0,0,0,0,0,0,0,0,0,0,0,0,0,0,0,0,0,0,0,0,0,0,0,0,0,0,0,0,0,0,0,0,0,0,0,0,0,0,0],"id":8,"left_children":[1,3,5,7,9,11,13,15,17,19,21,23,25,27,29,-1,-1,31,-1,33,35,37,-1,39,41,-1,-1,43,45,-1,-1,47,49,-1,-1,-1,-1,51,53,-1,55,57,59,61,63,65,67,-1,-1,-1,-1,-1,-1,-1,-1,-1,-1,-1,-1,-1,-1,-1,-1,-1,-1,-1,-1,-1,-1],"loss_changes":[2.2720215E3,1.8039917E1,1.7289062E1,2.1845703E0,7.2681227E0,5.1280994E0,2.3046875E0,4.197772E0,1.7243652E0,2.060025E0,3.8562279E0,3.464599E0,1.9062243E0,2.1585693E0,2.4696407E0,0E0,0E0,1.0180664E0,0E0,1.45947E0,6.114507E-1,3.9797E0,0E0,3.0852325E0,2.8843517E0,0E0,0E0,9.108887E-1,4.8171177E0,0E0,0E0,9.005127E-1,9.41282E-1,0E0,0E0,0E0,0E0,3.9011402E0,3.217445E0,0E0,2.1414795E0,1.8386405E0,2.7694647E0,6.048584E-1,1.7143435E0,3.5189645E0,6.7938566E-1,0E0,0E0,0E0,0E0,0E0,0E0,0E0,0E0,0E0,0E0,0E0,0E0,0E0,0E0,0E0,0E0,0E0,0E0,0E0,0E0,0E0,0E0],"parents":[2147483647,0,0,1,1,2,2,3,3,4,4,5,5,6,6,7,7,8,8,9,9,10,10,11,11,12,12,13,13,14,14,17,17,19,19,20,20,21,21,23,23,24,24,27,27,28,28,31,31,32,32,37,37,38,38,40,40,41,41,42,42,43,43,44,44,45,45,46,46],"right_children":[2,4,6,8,10,12,14,16,18,20,22,24,26,28,30,-1,-1,32,-1,34,36,38,-1,40,42,-1,-1,44,46,-1,-1,48,50,-1,-1,-1,-1,52,54,-1,56,58,60,62,64,66,68,-1,-1,-1,-1,-1,-1,-1,-1,-1,-1,-1,-1,-1,-1,-1,-1,-1,-1,-1,-1,-1,-1],"split_conditions":[-3.8578695E-1,-3.2973865E-1,4.507312E-1,-8.113965E-1,-8.7396346E-2,3.012146E0,-6.7788225E-1,2.3213267E-1,2.1256464E0,-3.313909E-1,6.3281107E-1,-4.1610774E-1,-2.2286583E-2,1.4469173E0,3.730561E-1,-2.538482E-1,2.0562635E-1,2.4774408E0,-3.5228801E-3,8.8135695E-1,3.4031388E-1,-5.142721E-1,2.6227057E-1,-8.3521056E-1,1.6960374E-1,-6.0180318E-2,2.9081997E-1,4.017324E-1,2.8360516E-1,-1.865704E-1,2.0342799E-1,8.9989346E-1,-9.3896013E-1,-1.6150627E-1,1.5814036E-1,4.1658664E-1,6.1919346E-2,6.788697E-1,2.84362E-1,-4.6248913E-1,-2.5697E-1,1.819719E-1,4.186193E-1,-5.7109207E-1,1.1655939E-1,1.1931473E0,6.3914376E-1,-3.1020352E-1,-1.5258653E-2,-1.8902119E-1,9.958505E-2,-2.7430832E-1,1.7861202E-1,1.7011695E-1,-1.2426484E-1,1.9563712E-1,-1.87564E-1,2.9101402E-1,-1.3856047E-3,-1.4145988E-1,1.4816919E-1,4.3387137E-2,3.1039196E-1,-1.3895242E-1,2.2312652E-1,1.6484727E-1,-3.9564934E-1,2.8058666E-1,9.947958E-3],"split_indices":[21,429,173,354,1192,947,1467,634,958,104,765,617,285,1015,901,0,0,1500,0,1262,204,121,0,1519,194,0,0,938,126,0,0,1443,1279,0,0,0,0,361,532,0,1423,766,1383,1448,1120,899,6,0,0,0,0,0,0,0,0,0,0,0,0,0,0,0,0,0,0,0,0,0,0],"split_type":[0,0,0,0,0,0,0,0,0,0,0,0,0,0,0,0,0,0,0,0,0,0,0,0,0,0,0,0,0,0,0,0,0,0,0,0,0,0,0,0,0,0,0,0,0,0,0,0,0,0,0,0,0,0,0,0,0,0,0,0,0,0,0,0,0,0,0,0,0],"sum_hessian":[2.2666768E3,1.1348021E3,1.1318748E3,1.0824633E3,5.2338833E1,3.3818344E1,1.0980564E3,6.0399017E0,1.0764233E3,5.673328E0,4.6665504E1,2.3105085E1,1.0713259E1,1.0936421E3,4.4143567E0,4.2054358E0,1.8344663E0,1.0747399E3,1.683425E0,3.1424115E0,2.5309165E0,4.566087E1,1.0046346E0,4.6555333E0,1.8449553E1,1.2519934E0,9.461266E0,1.0828301E3,1.0811952E1,1.3526235E0,3.061733E0,1.0724751E3,2.264823E0,1.565538E0,1.5768735E0,1.5117768E0,1.0191396E0,2.7317312E1,1.834356E1,1.38078E0,3.2747533E0,7.6775045E0,1.0772048E1,1.0795204E3,3.309729E0,2.3577933E0,8.454158E0,1.0714364E3,1.0387094E0,1.2638891E0,1.0009339E0,2.6153181E1,1.1641319E0,3.2950366E0,1.5048522E1,1.465806E0,1.8089473E0,4.782475E0,2.8950295E0,7.0124793E0,3.7595682E0,1.1157854E0,1.0784047E3,1.0026026E0,2.3071265E0,1.0231938E0,1.3345995E0,7.44435E0,1.0098085E0],"tree_param":{"num_deleted":"0","num_feature":"1536","num_nodes":"69","size_leaf_vector":"1"}},{"base_weights":[1.2778762E-3,-9.743888E-1,9.806751E-1,-1.0087092E0,-3.5586044E-1,2.4823885E-1,1.0074844E0,-1.0133715E0,-2.8083968E-1,-4.2186287E-1,3.1674993E-1,-1.1095753E-1,6.6249883E-1,-2.0519855E-2,1.0100763E0,-2.002898E-1,-1.017047E0,-2.4829228E-1,2.3711821E-1,-1.7330842E-1,-8.694692E-1,2.1530098E-1,-6.7226106E-1,8.7192863E-1,-2.8673086E-1,1.01591E0,4.456422E-1,2.9441097E-1,-2.3075207E-1,-1.0199704E0,-8.546703E-2,4.0324464E-1,-2.8870845E-1,-2.9267794E-1,6.769181E-2,6.118337E-1,-2.1348134E-1,-9.159068E-1,5.9394264E-3,-2.2953399E-2,2.900853E-1,-3.3246428E-1,1.5825574E-1,1.0180974E0,2.2370464E-1,2.689179E-1,-3.7218675E-1,-3.065133E-1,-4.791401E-2,-2.0102875E-1,2.0597951E-1,-1.3775535E-1,1.5060027E-1,-9.096702E-2,2.5491017E-1,1.3891119E-1,-1.3698532E-1,-7.699797E-2,-3.0732155E-1,3.061197E-1,9.0467446E-2,1.9503973E-1,-1.2802769E-1,1.849196E-1,-3.1800306E-1],"categories":[],"categories_nodes":[],"categories_segments":[],"categories_sizes":[],"default_left":[0,0,0,0,0,0,0,0,0,0,0,0,0,0,0,0,0,0,0,0,0,0,0,0,0,0,0,0,0,0,0,0,0,0,0,0,0,0,0,0,0,0,0,0,0,0,0,0,0,0,0,0,0,0,0,0,0,0,0,0,0,0,0,0,0],"id":9,"left_children":[1,3,5,7,9,11,13,15,17,19,-1,21,23,-1,25,27,29,-1,-1,31,33,35,37,39,41,43,45,-1,-1,47,49,-1,51,-1,-1,53,55,57,-1,-1,-1,-1,-1,59,61,-1,63,-1,-1,-1,-1,-1,-1,-1,-1,-1,-1,-1,-1,-1,-1,-1,-1,-1,-1],"loss_changes":[1.6414127E3,1.7908081E1,1.658252E1,2.4802246E0,4.804364E0,4.7750463E0,2.3741455E0,2.2144775E0,4.5018334E0,4.9010735E0,0E0,3.400669E0,3.195557E0,0E0,2.2629395E0,4.0397334E0,2.105896E0,0E0,0E0,5.719284E0,2.0753145E0,2.1711445E0,1.1610336E0,1.1902599E0,2.8793802E0,1.1853027E0,4.1004534E0,0E0,0E0,1.0387573E0,2.089825E0,0E0,4.1552267E0,0E0,0E0,1.6710963E0,1.2818233E0,9.716606E-2,0E0,0E0,0E0,0E0,0E0,1.033081E0,1.2557682E0,0E0,3.6026697E0,0E0,0E0,0E0,0E0,0E0,0E0,0E0,0E0,0E0,0E0,0E0,0E0,0E0,0E0,0E0,0E0,0E0,0E0],"parents":[2147483647,0,0,1,1,2,2,3,3,4,4,5,5,6,6,7,7,8,8,9,9,11,11,12,12,14,14,15,15,16,16,19,19,20,20,21,21,22,22,23,23,24,24,25,25,26,26,29,29,30,30,32,32,35,35,36,36,37,37,43,43,44,44,46,46],"right_children":[2,4,6,8,10,12,14,16,18,20,-1,22,24,-1,26,28,30,-1,-1,32,34,36,38,40,42,44,46,-1,-1,48,50,-1,52,-1,-1,54,56,58,-1,-1,-1,-1,-1,60,62,-1,64,-1,-1,-1,-1,-1,-1,-1,-1,-1,-1,-1,-1,-1,-1,-1,-1,-1,-1],"split_conditions":[2.0319693E-1,-3.2973865E-1,4.507312E-1,-2.1910447E-1,6.3281107E-1,1.6558183E0,3.623228E-1,2.4649377E-1,-1.2864484E-1,2.4585801E-1,3.1674993E-1,-1.4071518E-1,4.1361116E-2,-2.0519855E-2,1.4469173E0,-1.19587325E-1,2.4182653E0,-2.4829228E-1,2.3711821E-1,1.3015998E-2,1.1009306E0,-3.3908117E-1,1.5536736E-1,-2.2105303E0,-1.9610653E0,-6.7788225E-1,9.1223454E-1,2.9441097E-1,-2.3075207E-1,8.9989346E-1,2.6944107E-1,4.0324464E-1,1.6742902E0,-2.9267794E-1,6.769181E-2,-2.1139582E-1,-8.983611E-1,-8.153565E-1,5.9394264E-3,-2.2953399E-2,2.900853E-1,-3.3246428E-1,1.5825574E-1,4.017324E-1,8.538913E-1,2.689179E-1,1.7781907E-1,-3.065133E-1,-4.791401E-2,-2.0102875E-1,2.0597951E-1,-1.3775535E-1,1.5060027E-1,-9.096702E-2,2.5491017E-1,1.3891119E-1,-1.3698532E-1,-7.699797E-2,-3.0732155E-1,3.061197E-1,9.0467446E-2,1.9503973E-1,-1.2802769E-1,1.849196E-1,-3.1800306E-1],"split_indices":[350,429,173,279,765,1311,1298,396,385,248,0,1332,149,0,1015,149,1500,0,0,602,885,1146,346,1348,1177,1467,1378,0,0,1443,652,0,1066,0,0,275,976,845,0,0,0,0,0,938,1009,0,0,0,0,0,0,0,0,0,0,0,0,0,0,0,0,0,0,0,0],"split_type":[0,0,0,0,0,0,0,0,0,0,0,0,0,0,0,0,0,0,0,0,0,0,0,0,0,0,0,0,0,0,0,0,0,0,0,0,0,0,0,0,0,0,0,0,0,0,0,0,0,0,0,0,0,0,0,0,0,0,0,0,0,0,0,0,0],"sum_hessian":[1.7157401E3,8.595096E2,8.562305E2,8.137273E2,4.5782276E1,3.0596205E1,8.2563434E2,8.081585E2,5.568772E0,4.4407223E1,1.3750529E0,1.6779337E1,1.3816867E1,1.9231163E0,8.237112E2,3.8865786E0,8.042719E2,3.8374012E0,1.7313708E0,2.9444159E1,1.4963063E1,1.1001264E1,5.7780743E0,1.1386159E1,2.4307077E0,8.144929E2,9.218258E0,1.0274096E0,2.859169E0,8.016613E2,2.6106355E0,1.3284125E0,2.8115746E1,1.3740633E1,1.2224305E0,5.493776E0,5.5074873E0,4.0343075E0,1.7437665E0,1.0546143E0,1.0331545E1,1.0302653E0,1.4004424E0,8.119659E2,2.5270505E0,5.8809032E0,3.337355E0,7.998553E2,1.8059982E0,1.5608168E0,1.0498186E0,2.3474043E1,4.6417027E0,1.0767674E0,4.4170084E0,1.2169449E0,4.2905426E0,1.0457557E0,2.9885519E0,8.089434E2,3.0224388E0,1.5266958E0,1.0003548E0,1.4119086E0,1.9254464E0],"tree_param":{"num_deleted":"0","num_feature":"1536","num_nodes":"65","size_leaf_vector":"1"}},{"base_weights":[1.7145087E-3,-9.51184E-1,9.5845455E-1,-4.0336183E-1,-1.0030383E0,2.0398282E-1,9.920861E-1,-6.8126386E-1,-7.9308435E-2,-7.426135E-2,-1.0070227E0,-2.3253386E-5,7.240307E-1,9.980187E-1,2.7470618E-1,2.0459789E-1,-8.4056485E-1,1.8937181E-1,-6.3893974E-1,-1.9386049E-1,2.1258523E-1,-3.475709E-1,-1.0107563E0,-2.3945788E-1,4.9772158E-1,-4.4677205E-2,2.6934832E-1,1.005234E0,3.975097E-1,5.5322963E-1,-1.6042048E-1,3.9187506E-1,-2.237071E-1,-9.062976E-1,9.5228694E-2,-2.6817523E-2,4.7197267E-1,7.497847E-2,-8.417129E-1,1.855199E-1,-2.2785103E-1,-1.0124278E0,-4.0908013E-2,2.5540956E-3,-9.0224934E-1,-9.860035E-2,7.163836E-1,1.0083051E0,2.360221E-1,-5.0762117E-1,7.490218E-1,-5.9829727E-2,2.4259073E-1,-2.9069862E-1,-6.1309114E-2,6.739477E-2,-2.1590775E-1,-6.968019E-2,-2.6943585E-1,-3.972775E-2,-3.042264E-1,8.51368E-2,-1.542657E-1,-3.8187188E-1,-2.1290408E-2,2.6888698E-1,-2.843397E-2,3.0297765E-1,1.05368085E-2,-1.3925262E-1,1.9972415E-1,-2.8386173E-1,4.8146386E-2,8.060577E-3,2.6033735E-1],"categories":[],"categories_nodes":[],"categories_segments":[],"categories_sizes":[],"default_left":[0,0,0,0,0,0,0,0,0,0,0,0,0,0,0,0,0,0,0,0,0,0,0,0,0,0,0,0,0,0,0,0,0,0,0,0,0,0,0,0,0,0,0,0,0,0,0,0,0,0,0,0,0,0,0,0,0,0,0,0,0,0,0,0,0,0,0,0,0,0,0,0,0,0,0],"id":10,"left_children":[1,3,5,7,9,11,13,15,17,19,21,23,25,27,29,31,33,35,37,-1,-1,39,41,43,45,-1,-1,47,49,51,-1,-1,-1,53,-1,55,-1,-1,57,-1,-1,59,-1,61,63,-1,65,67,69,71,73,-1,-1,-1,-1,-1,-1,-1,-1,-1,-1,-1,-1,-1,-1,-1,-1,-1,-1,-1,-1,-1,-1,-1,-1],"loss_changes":[1.1862794E3,1.8114258E1,1.6272827E1,5.173114E0,2.126648E0,3.0731916E0,2.3701782E0,4.5629196E0,4.3203917E0,2.0791276E0,1.1068726E0,2.7178733E0,1.3719597E0,2.2688599E0,1.7558163E0,6.780876E0,2.310032E0,5.9182677E0,1.8843963E0,0E0,0E0,2.4028292E0,7.219238E-1,2.4722135E0,1.573921E0,0E0,0E0,1.197998E0,3.2328548E0,1.1819483E0,0E0,0E0,0E0,9.198513E-1,0E0,3.2927256E0,0E0,0E0,5.924511E-2,0E0,0E0,7.233887E-1,0E0,1.9301584E0,1.179558E0,0E0,9.856217E-1,9.1882324E-1,1.4292276E0,1.0614027E0,5.6522584E-1,0E0,0E0,0E0,0E0,0E0,0E0,0E0,0E0,0E0,0E0,0E0,0E0,0E0,0E0,0E0,0E0,0E0,0E0,0E0,0E0,0E0,0E0,0E0,0E0],"parents":[2147483647,0,0,1,1,2,2,3,3,4,4,5,5,6,6,7,7,8,8,9,9,10,10,11,11,12,12,13,13,14,14,15,15,16,16,17,17,18,18,21,21,22,22,23,23,24,24,27,27,28,28,29,29,33,33,35,35,38,38,41,41,43,43,44,44,46,46,47,47,48,48,49,49,50,50],"right_children":[2,4,6,8,10,12,14,16,18,20,22,24,26,28,30,32,34,36,38,-1,-1,40,42,44,46,-1,-1,48,50,52,-1,-1,-1,54,-1,56,-1,-1,58,-1,-1,60,-1,62,64,-1,66,68,70,72,74,-1,-1,-1,-1,-1,-1,-1,-1,-1,-1,-1,-1,-1,-1,-1,-1,-1,-1,-1,-1,-1,-1,-1,-1],"split_conditions":[-1.2844849E-1,-1.3157609E-1,4.507312E-1,-5.4937962E-2,-1.7477864E0,3.012146E0,-1.7598823E0,1.4738865E-1,-7.27022E-2,-4.8408157E-1,-1.3144387E-1,2.1637328E-1,-2.2286583E-2,1.4469173E0,-1.6464029E-1,2.9077926E-1,9.802238E-1,-4.5692825E-1,5.593192E-1,-1.9386049E-1,2.1258523E-1,3.197351E-1,9.540417E-3,1.9787242E-1,-2.553858E-1,-4.4677205E-2,2.6934832E-1,4.017324E-1,-3.0059847E-1,-2.021855E-1,-1.6042048E-1,3.9187506E-1,-2.237071E-1,-3.9044702E-1,9.5228694E-2,-1.5406285E-1,4.7197267E-1,7.497847E-2,1.7237566E-1,1.855199E-1,-2.2785103E-1,1.2977414E-3,-4.0908013E-2,9.0413675E-2,-2.1471757E-2,-9.860035E-2,5.2141213E-1,3.3192863E0,1.1707629E0,-1.1289215E0,-6.0612184E-1,-5.9829727E-2,2.4259073E-1,-2.9069862E-1,-6.1309114E-2,6.739477E-2,-2.1590775E-1,-6.968019E-2,-2.6943585E-1,-3.972775E-2,-3.042264E-1,8.51368E-2,-1.542657E-1,-3.8187188E-1,-2.1290408E-2,2.6888698E-1,-2.843397E-2,3.0297765E-1,1.05368085E-2,-1.3925262E-1,1.9972415E-1,-2.8386173E-1,4.8146386E-2,8.060577E-3,2.6033735E-1],"split_indices":[141,152,173,985,953,947,1121,611,551,229,584,483,285,1015,1305,248,841,101,608,0,0,183,716,308,639,0,0,938,691,667,0,0,0,322,0,359,0,0,194,0,0,418,0,1147,303,0,1401,1067,899,1492,87,0,0,0,0,0,0,0,0,0,0,0,0,0,0,0,0,0,0,0,0,0,0,0,0],"split_type":[0,0,0,0,0,0,0,0,0,0,0,0,0,0,0,0,0,0,0,0,0,0,0,0,0,0,0,0,0,0,0,0,0,0,0,0,0,0,0,0,0,0,0,0,0,0,0,0,0,0,0,0,0,0,0,0,0,0,0,0,0,0,0,0,0,0,0,0,0,0,0,0,0,0,0],"sum_hessian":[1.299207E3,6.509132E2,6.482939E2,5.704384E1,5.938694E2,2.7966824E1,6.20327E2,3.011525E1,2.6928587E1,2.6207302E0,5.9124866E2,2.0805235E1,7.1615896E0,6.1485114E2,5.4759192E0,4.5467477E0,2.5568502E1,1.864074E1,8.2878475E0,1.6152644E0,1.0054657E0,3.8582084E0,5.8739044E2,1.4398102E1,6.4071326E0,1.2128341E0,5.9487553E0,6.068852E2,7.965914E0,4.3095574E0,1.1663619E0,1.9321998E0,2.614548E0,2.4400763E1,1.1677388E0,1.6970255E1,1.6704854E0,1.4962776E0,6.79157E0,1.0035933E0,2.8546152E0,5.861121E2,1.2783105E0,1.1276677E1,3.1214244E0,1.2353371E0,5.1717954E0,6.0416223E2,2.7229393E0,2.1040232E0,5.8618903E0,1.1474034E0,3.162154E0,2.2050697E1,2.350066E0,1.29471035E1,4.0231504E0,1.0088769E0,5.7826934E0,1.2556936E0,5.8485645E2,7.594491E0,3.6821861E0,1.7914042E0,1.3300202E0,4.1470795E0,1.0247161E0,6.031203E2,1.0419374E0,1.0050821E0,1.7178572E0,1.0189093E0,1.085114E0,1.0011042E0,4.8607864E0],"tree_param":{"num_deleted":"0","num_feature":"1536","num_nodes":"75","size_leaf_vector":"1"}},{"base_weights":[1.1337751E-3,9.374598E-1,-9.2544585E-1,9.7959536E-1,2.2880752E-1,-3.5430506E-1,-9.9026316E-1,-8.937497E-2,9.844535E-1,4.872941E-1,-2.4673939E-1,2.8960013E-1,-5.0477076E-1,-1.282257E-1,-9.965838E-1,-2.0290104E-1,1.6278791E-1,9.915858E-1,1.7079726E-1,8.299022E-1,2.3064485E-1,1.01414554E-1,-7.833357E-1,6.789467E-1,-1.7333747E-1,3.0243793E-1,-5.8181775E-1,1.940174E-1,-2.0925562E-1,-1.0009364E0,-1.2870452E-1,9.962557E-1,2.2492297E-1,-2.4651022E-1,2.2668272E-1,2.7136105E-1,5.2933782E-2,4.7544047E-1,-3.5624188E-1,-1.6222562E-1,2.2049217E-1,-2.4286244E-2,-3.0277076E-1,2.6763567E-1,-4.3871857E-2,-4.960842E-1,1.3336483E-1,5.143478E-1,-6.5937793E-1,-1.0053935E0,-2.881972E-1,-1.7770755E-1,1.444913E-1,3.0016378E-1,7.4590646E-2,-1.7796722E-1,2.0572312E-1,-1.399814E-1,1.9853565E-1,-2.0839211E-1,7.758888E-2,-1.4041892E-1,1.00730255E-1,-2.1502967E-1,1.891795E-2,4.0033823E-1,-1.6450956E-1,1.1143964E-1,-2.1755873E-1,-3.0229262E-1,-2.6853332E-2,1.4729722E-1,-2.0793928E-1],"categories":[],"categories_nodes":[],"categories_segments":[],"categories_sizes":[],"default_left":[0,0,0,0,0,0,0,0,0,0,0,0,0,0,0,0,0,0,0,0,0,0,0,0,0,0,0,0,0,0,0,0,0,0,0,0,0,0,0,0,0,0,0,0,0,0,0,0,0,0,0,0,0,0,0,0,0,0,0,0,0,0,0,0,0,0,0,0,0,0,0,0,0],"id":11,"left_children":[1,3,5,7,9,11,13,15,17,19,21,23,25,27,29,-1,-1,31,33,35,37,39,41,43,45,-1,47,-1,-1,49,51,53,55,-1,-1,-1,-1,57,59,61,-1,-1,-1,-1,-1,63,-1,65,67,69,71,-1,-1,-1,-1,-1,-1,-1,-1,-1,-1,-1,-1,-1,-1,-1,-1,-1,-1,-1,-1,-1,-1],"loss_changes":[8.5840027E2,1.4470276E1,1.805899E1,2.4986877E0,3.6755748E0,5.2076874E0,2.3026733E0,1.4861257E0,2.5127869E0,1.4857945E0,2.1062524E0,2.0158026E0,5.5651417E0,2.389823E0,1.543335E0,0E0,0E0,1.4154663E0,3.6531742E0,2.2003937E-1,1.9350538E0,1.366174E0,6.138692E-1,1.1724391E0,1.3387679E0,0E0,3.8483458E0,0E0,0E0,1.1090088E0,1.2351503E0,1.2102356E0,1.9390793E0,0E0,0E0,0E0,0E0,1.9064274E0,1.0512862E0,1.0848235E0,0E0,0E0,0E0,0E0,0E0,5.5802095E-1,0E0,3.5985289E0,2.9145164E0,8.100891E-1,1.6459976E0,0E0,0E0,0E0,0E0,0E0,0E0,0E0,0E0,0E0,0E0,0E0,0E0,0E0,0E0,0E0,0E0,0E0,0E0,0E0,0E0,0E0,0E0],"parents":[2147483647,0,0,1,1,2,2,3,3,4,4,5,5,6,6,7,7,8,8,9,9,10,10,11,11,12,12,13,13,14,14,17,17,18,18,19,19,20,20,21,21,22,22,23,23,24,24,26,26,29,29,30,30,31,31,32,32,37,37,38,38,39,39,45,45,47,47,48,48,49,49,50,50],"right_children":[2,4,6,8,10,12,14,16,18,20,22,24,26,28,30,-1,-1,32,34,36,38,40,42,44,46,-1,48,-1,-1,50,52,54,56,-1,-1,-1,-1,58,60,62,-1,-1,-1,-1,-1,64,-1,66,68,70,72,-1,-1,-1,-1,-1,-1,-1,-1,-1,-1,-1,-1,-1,-1,-1,-1,-1,-1,-1,-1,-1,-1],"split_conditions":[-2.6642132E-1,-4.6708232E-1,-1.3157609E-1,3.623228E-1,2.1078069E-2,-8.660014E-1,-1.0494471E0,2.981918E-1,2.9989758E0,-2.4963999E-1,-4.21185E-1,-2.4048506E-1,-4.032493E-1,-6.5375805E-1,-2.1910447E-1,-2.0290104E-1,1.6278791E-1,1.1145921E0,-3.4650323E-1,-2.1758738E0,1.9787242E-1,1.0134863E0,-2.9492918E-1,4.065693E-1,-9.115292E-2,3.0243793E-1,-2.2398756E0,1.940174E-1,-2.0925562E-1,2.1511517E0,1.4876754E0,2.2985353E-1,3.462578E-1,-2.4651022E-1,2.2668272E-1,2.7136105E-1,5.2933782E-2,-2.2928543E-1,3.6939412E-1,-4.331594E-2,2.2049217E-1,-2.4286244E-2,-3.0277076E-1,2.6763567E-1,-4.3871857E-2,4.8223275E-1,1.3336483E-1,-9.8306316E-1,-1.50387315E-2,9.540417E-3,6.836809E-1,-1.7770755E-1,1.444913E-1,3.0016378E-1,7.4590646E-2,-1.7796722E-1,2.0572312E-1,-1.399814E-1,1.9853565E-1,-2.0839211E-1,7.758888E-2,-1.4041892E-1,1.00730255E-1,-2.1502967E-1,1.891795E-2,4.0033823E-1,-1.6450956E-1,1.1143964E-1,-2.1755873E-1,-3.0229262E-1,-2.6853332E-2,1.4729722E-1,-2.0793928E-1],"split_indices":[359,272,152,1298,915,1430,1013,1247,779,739,1126,163,123,931,279,0,0,1371,261,1060,308,1220,392,699,446,0,1166,0,0,1040,1244,376,147,0,0,0,0,94,104,697,0,0,0,0,0,664,0,1022,602,716,673,0,0,0,0,0,0,0,0,0,0,0,0,0,0,0,0,0,0,0,0,0,0],"split_type":[0,0,0,0,0,0,0,0,0,0,0,0,0,0,0,0,0,0,0,0,0,0,0,0,0,0,0,0,0,0,0,0,0,0,0,0,0,0,0,0,0,0,0,0,0,0,0,0,0,0,0,0,0,0,0,0,0,0,0,0,0,0,0,0,0,0,0,0,0,0,0,0,0],"sum_hessian":[9.8741846E2,4.911204E2,4.9629807E2,4.6319696E2,2.7923431E1,5.1242065E1,4.45056E2,2.0168362E0,4.611801E2,1.8074318E1,9.849114E0,9.530861E0,4.1711205E1,3.39446E0,4.4166153E2,1.0093067E0,1.0075294E0,4.5695584E2,4.2242627E0,6.784243E0,1.1290074E1,6.465305E0,3.3838093E0,4.9234576E0,4.6074033E0,1.4356749E0,4.0275528E1,1.3799664E0,2.0144937E0,4.3930502E2,2.3565016E0,4.5389166E2,3.064197E0,1.4160248E0,2.808238E0,5.74396E0,1.040283E0,8.100979E0,3.1890957E0,5.0908275E0,1.3744773E0,1.154022E0,2.2297873E0,3.8482249E0,1.0752326E0,3.156018E0,1.4513853E0,2.2892828E0,3.7986248E1,4.3616684E2,3.138182E0,1.355923E0,1.0005785E0,4.5096555E2,2.926118E0,1.0005273E0,2.06367E0,1.0894434E0,7.011535E0,1.973329E0,1.2157667E0,3.1911292E0,1.8996983E0,2.0607784E0,1.0952396E0,1.1477975E0,1.1414855E0,2.0010946E0,3.5985153E1,4.3499872E2,1.1681354E0,1.0004872E0,2.1376946E0],"tree_param":{"num_deleted":"0","num_feature":"1536","num_nodes":"73","size_leaf_vector":"1"}},{"base_weights":[1.6585944E-3,-8.948862E-1,9.124656E-1,-2.3424669E-1,-9.7655743E-1,2.8004986E-1,9.754936E-1,-3.5271877E-1,6.2054527E-1,-1.1560853E-1,-9.855214E-1,-9.1677625E-3,6.401892E-1,9.8338115E-1,2.2821749E-2,-5.7124402E-2,-7.3489684E-1,1.2041978E0,-1.2294725E-1,1.7942823E-1,-1.6960292E-1,-9.9212754E-1,-1.0600352E-1,-2.7172008E-1,5.42223E-1,2.714406E-1,9.612527E-2,9.89064E-1,1.664832E-1,-2.633345E-1,1.9622211E-1,7.8505385E-1,-2.5727358E-1,-9.088026E-1,3.5918835E-1,5.386886E-1,-2.7816668E-2,-9.97985E-1,-2.4706091E-1,-1.8915187E-1,1.8972592E-1,-7.4321204E-1,9.9776454E-2,2.4595273E-1,-5.0829682E-2,-1.7219517E-1,3.944552E-1,9.9489015E-1,1.9457611E-1,-1.4740607E-1,1.86152E-1,-1.6691409E-1,4.116781E-1,-1.4823022E-1,1.3458177E-1,-4.816695E-2,-2.8549245E-1,2.1812935E-1,-5.665993E-2,-3.0027518E-1,-3.3758923E-2,-2.0051067E-1,1.4739653E-1,-2.9972693E-1,9.411835E-2,1.2310295E-1,-1.14031695E-1,-1.3817745E-1,1.21887505E-1,2.1042874E-1,-4.4477455E-2,3.0003235E-1,6.6216E-2,1.9049132E-1,-1.4788687E-1],"categories":[],"categories_nodes":[],"categories_segments":[],"categories_sizes":[],"default_left":[0,0,0,0,0,0,0,0,0,0,0,0,0,0,0,0,0,0,0,0,0,0,0,0,0,0,0,0,0,0,0,0,0,0,0,0,0,0,0,0,0,0,0,0,0,0,0,0,0,0,0,0,0,0,0,0,0,0,0,0,0,0,0,0,0,0,0,0,0,0,0,0,0,0,0],"id":12,"left_children":[1,3,5,7,9,11,13,15,17,19,21,23,25,27,29,31,33,35,-1,-1,-1,37,39,41,43,-1,45,47,49,-1,-1,51,53,55,57,-1,-1,59,61,-1,-1,63,65,-1,67,-1,69,71,73,-1,-1,-1,-1,-1,-1,-1,-1,-1,-1,-1,-1,-1,-1,-1,-1,-1,-1,-1,-1,-1,-1,-1,-1,-1,-1],"loss_changes":[6.1673566E2,2.0307373E1,1.4660461E1,4.5928817E0,2.4978638E0,3.6886559E0,2.534607E0,4.315477E0,3.873261E0,1.8210886E0,1.8400879E0,3.1289163E0,2.1822228E0,1.4020386E0,2.7447278E0,4.050898E0,3.5111217E0,3.1131907E0,0E0,0E0,0E0,1.203186E0,1.7990845E0,2.6346421E0,1.1904321E0,0E0,1.481162E0,1.356781E0,1.3603565E0,0E0,0E0,4.4116764E0,3.4317715E0,3.1922245E-1,7.4471736E-1,0E0,0E0,7.42218E-1,1.5479051E0,0E0,0E0,2.0876985E0,1.5058974E0,0E0,7.802301E-1,0E0,9.2627054E-1,1.1213684E0,1.42771E0,0E0,0E0,0E0,0E0,0E0,0E0,0E0,0E0,0E0,0E0,0E0,0E0,0E0,0E0,0E0,0E0,0E0,0E0,0E0,0E0,0E0,0E0,0E0,0E0,0E0,0E0],"parents":[2147483647,0,0,1,1,2,2,3,3,4,4,5,5,6,6,7,7,8,8,9,9,10,10,11,11,12,12,13,13,14,14,15,15,16,16,17,17,21,21,22,22,23,23,24,24,26,26,27,27,28,28,31,31,32,32,33,33,34,34,37,37,38,38,41,41,42,42,44,44,46,46,47,47,48,48],"right_children":[2,4,6,8,10,12,14,16,18,20,22,24,26,28,30,32,34,36,-1,-1,-1,38,40,42,44,-1,46,48,50,-1,-1,52,54,56,58,-1,-1,60,62,-1,-1,64,66,-1,68,-1,70,72,74,-1,-1,-1,-1,-1,-1,-1,-1,-1,-1,-1,-1,-1,-1,-1,-1,-1,-1,-1,-1,-1,-1,-1,-1,-1,-1],"split_conditions":[-3.8578695E-1,-8.845745E-2,-1.5062886E-1,5.8902943E-1,-5.5476207E-1,1.6206756E0,8.495842E-2,-9.344842E-2,2.7676263E-1,-4.0215862E-1,-4.1089803E-1,3.5136932E-1,-4.2453834E-1,1.1145921E0,-2.398617E-1,-3.2659218E-1,1.5882595E-1,-5.766734E-1,-1.2294725E-1,1.7942823E-1,-1.6960292E-1,2.1511517E0,-4.9034673E-1,1.350774E-1,2.1702169E-1,2.714406E-1,1.5842311E0,3.4575057E-1,-3.4530818E-1,-2.633345E-1,1.9622211E-1,-8.737048E-1,-4.745363E-1,4.421039E-1,-5.369484E-4,5.386886E-1,-2.7816668E-2,9.540417E-3,-4.1546726E0,-1.8915187E-1,1.8972592E-1,-9.8444775E-2,8.487748E-1,2.4595273E-1,2.9441166E0,-1.7219517E-1,-4.2185473E-1,9.0326005E-1,-1.1018635E-2,-1.4740607E-1,1.86152E-1,-1.6691409E-1,4.116781E-1,-1.4823022E-1,1.3458177E-1,-4.816695E-2,-2.8549245E-1,2.1812935E-1,-5.665993E-2,-3.0027518E-1,-3.3758923E-2,-2.0051067E-1,1.4739653E-1,-2.9972693E-1,9.411835E-2,1.2310295E-1,-1.14031695E-1,-1.3817745E-1,1.21887505E-1,2.1042874E-1,-4.4477455E-2,3.0003235E-1,6.6216E-2,1.9049132E-1,-1.4788687E-1],"split_indices":[21,11,620,632,862,1373,115,551,507,308,1327,142,333,1371,1360,211,707,404,0,0,0,1040,976,46,301,0,1328,1163,122,0,0,1406,1427,1460,444,0,0,716,1375,0,0,511,1353,0,1398,0,1318,905,11,0,0,0,0,0,0,0,0,0,0,0,0,0,0,0,0,0,0,0,0,0,0,0,0,0,0],"split_type":[0,0,0,0,0,0,0,0,0,0,0,0,0,0,0,0,0,0,0,0,0,0,0,0,0,0,0,0,0,0,0,0,0,0,0,0,0,0,0,0,0,0,0,0,0,0,0,0,0,0,0,0,0,0,0,0,0,0,0,0,0,0,0,0,0,0,0,0,0,0,0,0,0,0,0],"sum_hessian":[7.5326746E2,3.7961462E2,3.7365283E2,4.2191936E1,3.374227E2,3.435748E1,3.3929535E2,3.7571922E1,4.620014E0,3.6201491E0,3.3380255E2,1.9595465E1,1.4762014E1,3.364773E2,2.8180566E0,2.1833975E1,1.5737946E1,2.8416545E0,1.7783595E0,1.2718748E0,2.3482742E0,3.3118695E2,2.6156003E0,1.3618187E1,5.977278E0,9.485549E0,5.276466E0,3.3394342E2,2.5338557E0,1.0003384E0,1.817718E0,3.6314383E0,1.8202538E1,1.3725599E1,2.0123465E0,1.687552E0,1.1541026E0,3.2826675E2,2.920199E0,1.6147718E0,1.0008286E0,5.560448E0,8.057738E0,3.8109078E0,2.1663704E0,1.3407904E0,3.9356756E0,3.3126196E2,2.681472E0,1.0011148E0,1.5327407E0,1.1216347E0,2.5098038E0,1.3854339E1,4.348199E0,1.0003792E0,1.2725221E1,1.0085908E0,1.0037557E0,3.270533E2,1.213429E0,1.9196827E0,1.0005162E0,4.520742E0,1.0397062E0,4.979834E0,3.077905E0,1.1383587E0,1.0280117E0,2.3270066E0,1.608669E0,3.2875443E2,2.5075285E0,1.6811014E0,1.0003706E0],"tree_param":{"num_deleted":"0","num_feature":"1536","num_nodes":"75","size_leaf_vector":"1"}},{"base_weights":[2.388883E-3,-9.0052426E-1,8.4771216E-1,-2.867028E-1,-9.6046656E-1,9.542116E-1,1.899178E-1,4.8743585E-1,-5.234217E-1,-9.699734E-1,1.4899512E-1,9.7200507E-1,1.7004135E-1,1.4643462E-2,5.674142E-1,1.195949E0,-3.178275E-1,2.5393313E-1,-8.3646345E-1,-9.775702E-1,-4.602334E-2,2.2555995E-1,-1.5552202E-1,-4.425208E-2,9.796071E-1,2.324256E-1,-5.667486E-1,3.3730054E-1,-3.9726627E-1,8.287616E-1,-1.7211752E-2,5.021003E-1,-1.875966E-2,1.108235E-1,-2.0400554E-1,5.446882E-1,-1.1917465E-1,4.6421163E-2,-2.844723E-1,2.5708226E-2,-9.829212E-1,-1.5967819E-1,1.472073E-1,1.4813544E-1,9.913298E-1,5.4283064E-2,-2.8673476E-1,5.8143055E-1,-9.0651326E-2,-6.5529686E-1,2.0375401E-1,2.685122E-1,6.2341485E-2,3.877606E-1,-1.8722662E-1,-2.1511292E-2,2.4137457E-1,-2.9609516E-1,-1.0430012E-2,-2.980726E-1,2.1994667E-1,2.9978827E-1,2.356611E-2,2.1616125E-1,-8.1987284E-2,1.6662917E-1,-9.8048575E-2,3.76598E-2,-2.66839E-1,-1.548082E-1,1.5654573E-1,-4.9623046E-2,1.9548124E-1],"categories":[],"categories_nodes":[],"categories_segments":[],"categories_sizes":[],"default_left":[0,0,0,0,0,0,0,0,0,0,0,0,0,0,0,0,0,0,0,0,0,0,0,0,0,0,0,0,0,0,0,0,0,0,0,0,0,0,0,0,0,0,0,0,0,0,0,0,0,0,0,0,0,0,0,0,0,0,0,0,0,0,0,0,0,0,0,0,0,0,0,0,0],"id":13,"left_children":[1,3,5,7,9,11,13,15,17,19,21,23,25,27,29,31,33,35,37,39,41,-1,-1,-1,43,-1,45,47,49,51,53,-1,-1,-1,-1,55,-1,-1,-1,-1,57,-1,-1,59,61,-1,-1,63,65,67,69,-1,-1,71,-1,-1,-1,-1,-1,-1,-1,-1,-1,-1,-1,-1,-1,-1,-1,-1,-1,-1,-1],"loss_changes":[4.428645E2,1.0047546E1,2.081218E1,5.0904503E0,2.8359375E0,3.4299622E0,2.8371897E0,4.200878E0,5.247011E0,1.7318115E0,1.6108537E0,2.286911E0,3.526247E0,4.1737804E0,2.0937324E0,2.372593E0,1.2280419E0,1.4862015E0,1.8066902E0,1.5124512E0,1.0737802E0,0E0,0E0,0E0,2.2915802E0,0E0,1.249452E0,1.8899541E0,2.275276E0,2.0193577E-1,1.5161055E0,0E0,0E0,0E0,0E0,8.68011E-1,0E0,0E0,0E0,0E0,9.281311E-1,0E0,0E0,3.836778E0,1.7136078E0,0E0,0E0,1.5443201E0,1.2882501E0,1.9217176E0,1.3935927E0,0E0,0E0,6.5160793E-1,0E0,0E0,0E0,0E0,0E0,0E0,0E0,0E0,0E0,0E0,0E0,0E0,0E0,0E0,0E0,0E0,0E0,0E0,0E0],"parents":[2147483647,0,0,1,1,2,2,3,3,4,4,5,5,6,6,7,7,8,8,9,9,10,10,11,11,12,12,13,13,14,14,15,15,16,16,17,17,18,18,19,19,20,20,24,24,26,26,27,27,28,28,29,29,30,30,35,35,40,40,43,43,44,44,47,47,48,48,49,49,50,50,53,53],"right_children":[2,4,6,8,10,12,14,16,18,20,22,24,26,28,30,32,34,36,38,40,42,-1,-1,-1,44,-1,46,48,50,52,54,-1,-1,-1,-1,56,-1,-1,-1,-1,58,-1,-1,60,62,-1,-1,64,66,68,70,-1,-1,72,-1,-1,-1,-1,-1,-1,-1,-1,-1,-1,-1,-1,-1,-1,-1,-1,-1,-1,-1],"split_conditions":[-1.0321778E-1,1.583517E-1,-4.6350682E-1,-5.184344E-1,8.440659E-2,5.824837E-1,6.7860925E-1,1.8708658E-1,8.410237E-2,2.9565722E-1,-4.776056E-3,-3.8677722E-1,3.047637E-1,1.0960777E0,3.8842328E-2,-5.467167E-1,1.5276362E-1,-4.7035E-1,-2.630711E0,-2.2977635E-1,-7.3354703E-1,2.2555995E-1,-1.5552202E-1,-4.425208E-2,4.3726248E-1,2.324256E-1,-2.9858517E-2,-4.6401381E-1,4.9689434E-2,3.9684832E0,4.1361116E-2,5.021003E-1,-1.875966E-2,1.108235E-1,-2.0400554E-1,-7.380767E-1,-1.1917465E-1,4.6421163E-2,-2.844723E-1,2.5708226E-2,9.540417E-3,-1.5967819E-1,1.472073E-1,2.9517887E-2,1.1145921E0,5.4283064E-2,-2.8673476E-1,-2.3598862E-1,-1.6752499E0,-4.8373652E-1,1.2433153E0,2.685122E-1,6.2341485E-2,2.3903899E-1,-1.8722662E-1,-2.1511292E-2,2.4137457E-1,-2.9609516E-1,-1.0430012E-2,-2.980726E-1,2.1994667E-1,2.9978827E-1,2.356611E-2,2.1616125E-1,-8.1987284E-2,1.6662917E-1,-9.8048575E-2,3.76598E-2,-2.66839E-1,-1.548082E-1,1.5654573E-1,-4.9623046E-2,1.9548124E-1],"split_indices":[78,145,35,129,276,1115,1116,757,954,320,135,113,1463,1503,641,488,393,644,1160,332,913,0,0,0,48,0,1257,1493,285,1468,149,0,0,0,0,641,0,0,0,0,716,0,0,134,1371,0,0,1330,847,436,842,0,0,1465,0,0,0,0,0,0,0,0,0,0,0,0,0,0,0,0,0,0,0],"split_type":[0,0,0,0,0,0,0,0,0,0,0,0,0,0,0,0,0,0,0,0,0,0,0,0,0,0,0,0,0,0,0,0,0,0,0,0,0,0,0,0,0,0,0,0,0,0,0,0,0,0,0,0,0,0,0,0,0,0,0,0,0,0,0,0,0,0,0,0,0,0,0,0,0],"sum_hessian":[5.782323E2,2.795606E2,2.986717E2,2.5385979E1,2.5417462E2,2.566659E2,4.2005814E1,5.69677E0,1.9689209E1,2.5213982E2,2.0348167E0,2.5073694E2,5.928951E0,2.939588E1,1.2609931E1,2.7723477E0,2.9244227E0,5.7067795E0,1.39824295E1,2.5002603E2,2.1137798E0,1.0025998E0,1.0322169E0,1.5670198E0,2.4916992E2,3.2280488E0,2.700902E0,1.6585365E1,1.2810515E1,8.425747E0,4.1841836E0,1.7703958E0,1.0019518E0,1.0024287E0,1.921994E0,4.0582814E0,1.6484983E0,1.3780526E0,1.2604377E1,1.1767918E0,2.4884924E2,1.1133955E0,1.0003844E0,3.6537235E0,2.455162E2,1.1074196E0,1.5934823E0,1.033246E1,6.2529044E0,8.899477E0,3.911039E0,7.214322E0,1.2114253E0,2.7260985E0,1.4580852E0,1.4183846E0,2.6398969E0,2.4774673E2,1.1025065E0,1.0012832E0,2.6524403E0,2.4329852E2,2.2176692E0,9.0212345E0,1.3112254E0,1.3120186E0,4.940886E0,2.1601982E0,6.739279E0,1.0078588E0,2.9031804E0,1.0008354E0,1.7252631E0],"tree_param":{"num_deleted":"0","num_feature":"1536","num_nodes":"73","size_leaf_vector":"1"}},{"base_weights":[2.9419463E-3,8.505955E-1,-8.309728E-1,3.0437255E-1,9.5282644E-1,-9.633996E-1,-2.8310132E-1,-6.761304E-1,4.1601858E-1,-8.503352E-2,9.692975E-1,-9.740437E-1,3.3004623E-2,8.210721E-2,-5.3571767E-1,9.0468936E-2,-4.961252E-1,2.6538116E-1,2.069957E-1,-3.2645345E-1,1.9602957E-1,9.792853E-1,-2.5411189E-2,-9.848881E-1,1.7898425E-2,5.130725E-1,-4.1200042E-1,3.358225E-1,-6.6181165E-1,5.08046E-1,-7.3246695E-2,-1.2820575E-2,9.852692E-1,-4.6703736E-3,-9.903789E-1,1.4695812E0,2.1258913E-2,4.4618356E-1,-2.458147E-1,2.4087982E-1,-1.212888E-1,-8.3021015E-1,1.30563E-1,1.9677903E-1,-7.9027615E-2,-6.9633916E-2,1.8160889E-1,1.6397499E-3,2.9720235E-1,-8.136115E-3,-2.9878625E-1,6.47231E-1,2.767789E-2,2.0508158E-1,-1.32811E-1,-6.900611E-2,2.4546748E-1,2.952314E-2,-2.7474704E-1,1.5227441E-1,-1.282201E-1],"categories":[],"categories_nodes":[],"categories_segments":[],"categories_sizes":[],"default_left":[0,0,0,0,0,0,0,0,0,0,0,0,0,0,0,0,0,0,0,0,0,0,0,0,0,0,0,0,0,0,0,0,0,0,0,0,0,0,0,0,0,0,0,0,0,0,0,0,0,0,0,0,0,0,0,0,0,0,0,0,0],"id":14,"left_children":[1,3,5,7,9,11,13,15,17,19,21,23,-1,25,27,-1,-1,-1,29,-1,-1,31,-1,33,-1,35,37,39,41,43,45,-1,47,-1,49,51,53,55,-1,-1,-1,57,59,-1,-1,-1,-1,-1,-1,-1,-1,-1,-1,-1,-1,-1,-1,-1,-1,-1,-1],"loss_changes":[3.1693857E2,1.2126251E1,1.6125473E1,4.279512E0,3.276184E0,2.1821136E0,4.233655E0,4.4314938E0,3.0891533E0,3.5542104E0,2.0198364E0,2.0756836E0,0E0,4.350035E0,3.1869426E0,0E0,0E0,0E0,2.0965166E0,0E0,0E0,1.1572418E0,0E0,9.325714E-1,0E0,5.061756E0,3.7250047E0,1.732768E0,3.2980366E0,1.5297065E0,1.5975729E0,0E0,9.5487976E-1,0E0,9.2404175E-1,3.2700353E0,2.8116786E0,1.1292458E0,0E0,0E0,0E0,1.6682673E0,1.2800864E0,0E0,0E0,0E0,0E0,0E0,0E0,0E0,0E0,0E0,0E0,0E0,0E0,0E0,0E0,0E0,0E0,0E0,0E0],"parents":[2147483647,0,0,1,1,2,2,3,3,4,4,5,5,6,6,7,7,8,8,9,9,10,10,11,11,13,13,14,14,18,18,21,21,23,23,25,25,26,26,27,27,28,28,29,29,30,30,32,32,34,34,35,35,36,36,37,37,41,41,42,42],"right_children":[2,4,6,8,10,12,14,16,18,20,22,24,-1,26,28,-1,-1,-1,30,-1,-1,32,-1,34,-1,36,38,40,42,44,46,-1,48,-1,50,52,54,56,-1,-1,-1,58,60,-1,-1,-1,-1,-1,-1,-1,-1,-1,-1,-1,-1,-1,-1,-1,-1,-1,-1],"split_conditions":[-2.6642132E-1,4.3118227E-1,-2.1702765E-1,-1.3294662E0,-1.0086896E0,6.4633036E-1,9.521658E-1,1.5210901E-2,-4.4629508E-1,1.4794168E0,2.9989758E0,2.1511517E0,3.3004623E-2,6.4340985E-1,-2.2862522E-1,9.0468936E-2,-4.961252E-1,2.6538116E-1,-9.5334314E-2,-3.2645345E-1,1.9602957E-1,-1.2369967E0,-2.5411189E-2,-1.3144387E-1,1.7898425E-2,-1.211041E0,5.7019097E-1,-5.493195E-1,-8.259955E-1,1.9552418E0,1.7739974E-1,-1.2820575E-2,-9.8434585E-1,-4.6703736E-3,-1.2436426E-1,-2.5124994E-1,2.965297E-1,4.2170528E-1,-2.458147E-1,2.4087982E-1,-1.212888E-1,-1.5507237E0,6.1413795E-1,1.9677903E-1,-7.9027615E-2,-6.9633916E-2,1.8160889E-1,1.6397499E-3,2.9720235E-1,-8.136115E-3,-2.9878625E-1,6.47231E-1,2.767789E-2,2.0508158E-1,-1.32811E-1,-6.900611E-2,2.4546748E-1,2.952314E-2,-2.7474704E-1,1.5227441E-1,-1.282201E-1],"split_indices":[359,488,444,1295,977,132,1134,1408,458,832,779,1040,0,1110,754,0,0,0,915,0,0,1007,0,584,0,1451,1353,167,1074,925,445,0,1036,0,147,751,30,426,0,0,0,1232,835,0,0,0,0,0,0,0,0,0,0,0,0,0,0,0,0,0,0],"split_type":[0,0,0,0,0,0,0,0,0,0,0,0,0,0,0,0,0,0,0,0,0,0,0,0,0,0,0,0,0,0,0,0,0,0,0,0,0,0,0,0,0,0,0,0,0,0,0,0,0,0,0,0,0,0,0,0,0,0,0,0,0],"sum_hessian":[4.463686E2,2.213509E2,2.2501767E2,3.552376E1,1.8582715E2,1.8060497E2,4.441271E1,3.1145964E0,3.240917E1,2.8380232E0,1.8298912E2,1.789233E2,1.6816592E0,1.843546E1,2.5977251E1,1.9029934E0,1.2116028E0,9.000301E0,2.3408865E1,1.0025605E0,1.8354628E0,1.813416E2,1.6475194E0,1.7711249E2,1.8108164E0,9.8264E0,8.609058E0,3.0731177E0,2.2904133E1,1.0893571E1,1.2515295E1,1.0198147E0,1.803218E2,1.0192311E0,1.7609325E2,2.6616926E0,7.1647067E0,2.740571E0,5.868488E0,1.8320117E0,1.2411062E0,1.8850256E1,4.053878E0,9.266948E0,1.6266227E0,1.0674332E1,1.8409634E0,1.000361E0,1.7932143E2,1.04708E0,1.7504617E2,1.3974065E0,1.2642862E0,2.7563586E0,4.408348E0,1.1081632E0,1.6324078E0,1.5785666E0,1.7271688E1,2.4730933E0,1.5807843E0],"tree_param":{"num_deleted":"0","num_feature":"1536","num_nodes":"61","size_leaf_vector":"1"}},{"base_weights":[3.3979013E-3,-8.632687E-1,7.434944E-1,-2.9881978E-1,-9.4650835E-1,1.7449474E-1,9.348379E-1,1.9551508E-1,-6.973655E-1,-9.6013844E-1,4.2831488E-2,2.541702E-1,-1.1080049E0,-8.767882E-2,9.550988E-1,8.9325035E-1,-3.6447632E-1,4.0734228E-2,-8.5747725E-1,-1.9315246E-1,-9.7560817E-1,6.667429E-2,6.12886E-1,-8.193366E-2,-4.1949612E-1,1.885362E-1,-2.9867312E-1,9.715314E-1,-6.338605E-2,4.3239537E-1,5.3288106E-2,1.6209966E-1,-2.2168228E-1,-2.7227533E-1,-5.6393404E-2,1.8304619E-1,-2.0088765E-1,-9.8279655E-1,-1.54017005E-2,-5.4330092E-2,1.0909034E0,7.204507E-2,8.243679E-1,-2.992688E-2,9.833175E-1,-1.5289125E-1,1.7651795E-1,-2.973275E-1,-3.9872658E-2,-1.6153878E-1,3.3467744E-2,3.222872E-2,4.5515403E-1,1.5558998E-1,-8.78389E-2,1.8189058E-2,2.680872E-1,2.9717562E-1,2.1652614E-3],"categories":[],"categories_nodes":[],"categories_segments":[],"categories_sizes":[],"default_left":[0,0,0,0,0,0,0,0,0,0,0,0,0,0,0,0,0,0,0,0,0,0,0,0,0,0,0,0,0,0,0,0,0,0,0,0,0,0,0,0,0,0,0,0,0,0,0,0,0,0,0,0,0,0,0,0,0,0,0],"id":15,"left_children":[1,3,5,7,9,11,13,15,17,19,-1,21,23,25,27,29,31,-1,33,35,37,39,41,-1,-1,-1,-1,43,-1,-1,45,-1,-1,-1,-1,-1,-1,47,-1,49,51,53,55,-1,57,-1,-1,-1,-1,-1,-1,-1,-1,-1,-1,-1,-1,-1,-1],"loss_changes":[2.2462737E2,7.2962723E0,2.0402512E1,4.508646E0,2.2174149E0,5.264642E0,3.0075378E0,4.5012403E0,1.7846541E0,1.4550476E0,0E0,3.1018457E0,3.5468674E-1,3.004021E0,2.8592758E0,2.2471008E0,2.6486568E0,0E0,1.858797E-1,1.9340074E0,8.5002136E-1,4.0015373E0,1.7612209E0,0E0,0E0,0E0,0E0,1.8244171E0,0E0,0E0,1.2130688E0,0E0,0E0,0E0,0E0,0E0,0E0,8.15979E-1,0E0,2.4212956E0,1.2658954E0,1.059437E0,5.4601574E-1,0E0,9.528961E-1,0E0,0E0,0E0,0E0,0E0,0E0,0E0,0E0,0E0,0E0,0E0,0E0,0E0,0E0],"parents":[2147483647,0,0,1,1,2,2,3,3,4,4,5,5,6,6,7,7,8,8,9,9,11,11,12,12,13,13,14,14,15,15,16,16,18,18,19,19,20,20,21,21,22,22,27,27,30,30,37,37,39,39,40,40,41,41,42,42,44,44],"right_children":[2,4,6,8,10,12,14,16,18,20,-1,22,24,26,28,30,32,-1,34,36,38,40,42,-1,-1,-1,-1,44,-1,-1,46,-1,-1,-1,-1,-1,-1,48,-1,50,52,54,56,-1,58,-1,-1,-1,-1,-1,-1,-1,-1,-1,-1,-1,-1,-1,-1],"split_conditions":[-3.885837E-1,-1.1665735E-1,4.3118227E-1,4.6277553E-1,2.9565722E-1,-2.630013E-1,4.3726248E-1,-5.529189E-1,-3.714186E-1,1.8720977E-3,4.2831488E-2,1.6206756E0,8.5795295E-1,1.4678338E-1,8.495842E-2,4.5090613E-1,3.808408E-1,4.0734228E-2,9.1579086E-1,4.6037114E-1,9.0097815E-2,6.906491E-2,1.3917543E-1,-8.193366E-2,-4.1949612E-1,1.885362E-1,-2.9867312E-1,2.0950691E-1,-6.338605E-2,4.3239537E-1,5.5465624E-2,1.6209966E-1,-2.2168228E-1,-2.7227533E-1,-5.6393404E-2,1.8304619E-1,-2.0088765E-1,1.428892E0,-1.54017005E-2,-3.9874953E-1,-3.295181E-1,-1.1213807E0,-7.9712456E-1,-2.992688E-2,8.990861E-1,-1.5289125E-1,1.7651795E-1,-2.973275E-1,-3.9872658E-2,-1.6153878E-1,3.3467744E-2,3.222872E-2,4.5515403E-1,1.5558998E-1,-8.78389E-2,1.8189058E-2,2.680872E-1,2.9717562E-1,2.1652614E-3],"split_indices":[241,540,488,720,320,725,48,488,1205,602,0,1373,897,480,115,703,534,0,841,720,385,501,718,0,0,0,0,1166,0,0,231,0,0,0,0,0,0,1066,0,1449,725,1211,1399,0,1454,0,0,0,0,0,0,0,0,0,0,0,0,0,0],"split_type":[0,0,0,0,0,0,0,0,0,0,0,0,0,0,0,0,0,0,0,0,0,0,0,0,0,0,0,0,0,0,0,0,0,0,0,0,0,0,0,0,0,0,0,0,0,0,0,0,0,0,0,0,0,0,0,0,0,0,0],"sum_hessian":[3.4820425E2,1.6031087E2,1.878934E2,2.1192724E1,1.3911815E2,4.7765293E1,1.4012811E2,9.686962E0,1.1505762E1,1.3751598E2,1.6021718E0,4.5726353E1,2.038939E0,2.6580062E0,1.374701E2,4.048063E0,5.638899E0,1.8792084E0,9.626554E0,2.9854147E0,1.3453056E2,3.0808853E1,1.49175005E1,1.0267996E0,1.0121393E0,1.658E0,1.0000062E0,1.35725E2,1.7450995E0,2.0164297E0,2.0316331E0,1.5209421E0,4.117957E0,8.62539E0,1.0011636E0,1.0070395E0,1.9783751E0,1.334295E2,1.1010517E0,2.8400517E1,2.4083362E0,4.5702558E0,1.0347245E1,1.3957453E0,1.3432925E2,1.0132729E0,1.0183603E0,1.3197527E2,1.4542369E0,6.674803E0,2.1725714E1,1.1068078E0,1.3015283E0,1.8653827E0,2.7048728E0,1.0162103E0,9.331035E0,1.3332173E2,1.0075284E0],"tree_param":{"num_deleted":"0","num_feature":"1536","num_nodes":"59","size_leaf_vector":"1"}},{"base_weights":[2.703464E-3,-8.449582E-1,6.7652625E-1,-9.530186E-1,-4.109337E-1,9.256955E-1,1.569416E-1,-9.729645E-1,8.301842E-2,-5.66618E-1,3.772103E-1,9.534209E-1,-2.739145E-1,-2.2525439E-2,5.22108E-1,-2.2439136E-1,-2.9801628E-1,-6.838725E-1,4.2517388E-1,9.7429925E-1,-7.7675425E-2,1.5997955E-1,-2.9864705E-1,1.1010408E-1,-1.0675328E0,8.4248143E-1,-9.738561E-2,1.4919479E-1,-1.958899E-1,-8.189956E-1,6.190766E-2,2.541313E-1,-6.209615E-2,9.840209E-1,2.9785533E-3,3.757917E-1,-1.8227637E-1,-2.14097E-2,-5.1195735E-1,3.6970306E-2,2.715278E-1,-2.59089E-1,3.4163344E-1,-2.738768E-1,5.490773E-2,1.5241161E-1,-1.7326586E-1,2.9817536E-1,6.975757E-2,-2.7029686E-2,1.6412756E-1,-2.0301718E-1,1.9053936E-2,1.7377105E-1,-5.1061567E-2],"categories":[],"categories_nodes":[],"categories_segments":[],"categories_sizes":[],"default_left":[0,0,0,0,0,0,0,0,0,0,0,0,0,0,0,0,0,0,0,0,0,0,0,0,0,0,0,0,0,0,0,0,0,0,0,0,0,0,0,0,0,0,0,0,0,0,0,0,0,0,0,0,0,0,0],"id":16,"left_children":[1,3,5,7,9,11,13,15,-1,17,-1,19,21,23,25,27,-1,29,31,33,-1,-1,-1,35,37,39,41,-1,-1,43,45,-1,-1,47,-1,49,51,-1,-1,-1,-1,-1,53,-1,-1,-1,-1,-1,-1,-1,-1,-1,-1,-1,-1],"loss_changes":[1.5818666E2,5.3609924E0,1.9830376E1,2.659462E0,7.5195026E0,3.722824E0,3.3681026E0,1.2464828E0,0E0,3.1586103E0,0E0,2.8328629E0,2.3527277E0,5.0096354E0,3.4396334E0,1.5138143E0,0E0,2.3117075E0,1.0352433E0,9.31839E-1,0E0,0E0,0E0,2.5720344E0,2.468142E0,3.9527893E-1,2.5364637E0,0E0,0E0,1.9614725E0,1.5404893E0,0E0,0E0,5.083618E-1,0E0,1.4228847E0,1.9894862E0,0E0,0E0,0E0,0E0,0E0,7.008934E-1,0E0,0E0,0E0,0E0,0E0,0E0,0E0,0E0,0E0,0E0,0E0,0E0],"parents":[2147483647,0,0,1,1,2,2,3,3,4,4,5,5,6,6,7,7,9,9,11,11,12,12,13,13,14,14,15,15,17,17,18,18,19,19,23,23,24,24,25,25,26,26,29,29,30,30,33,33,35,35,36,36,42,42],"right_children":[2,4,6,8,10,12,14,16,-1,18,-1,20,22,24,26,28,-1,30,32,34,-1,-1,-1,36,38,40,42,-1,-1,44,46,-1,-1,48,-1,50,52,-1,-1,-1,-1,-1,54,-1,-1,-1,-1,-1,-1,-1,-1,-1,-1,-1,-1],"split_conditions":[-1.6657807E-1,7.25761E-2,-3.3936957E-1,6.4633036E-1,2.0495601E-1,-6.563382E-1,4.6726966E-1,8.009118E-1,8.301842E-2,-4.5477495E-1,3.772103E-1,-1.7598823E0,1.7133191E-1,2.4462123E0,6.476287E-1,9.4584145E-2,-2.9801628E-1,5.053722E-1,6.9980025E-2,8.990861E-1,-7.7675425E-2,1.5997955E-1,-2.9864705E-1,1.3067871E-1,-2.8613296E-1,-2.583114E0,-1.0075103E0,1.4919479E-1,-1.958899E-1,2.3123762E-1,-6.541105E-1,2.541313E-1,-6.209615E-2,2.9711452E0,2.9785533E-3,-1.5192649E0,6.969816E-2,-2.14097E-2,-5.1195735E-1,3.6970306E-2,2.715278E-1,-2.59089E-1,1.7621055E-1,-2.738768E-1,5.490773E-2,1.5241161E-1,-1.7326586E-1,2.9817536E-1,6.975757E-2,-2.7029686E-2,1.6412756E-1,-2.0301718E-1,1.9053936E-2,1.7377105E-1,-5.1061567E-2],"split_indices":[178,528,98,132,66,219,888,679,0,21,0,1121,587,1432,1323,659,0,1489,542,1454,0,0,0,748,365,980,1300,0,0,1415,71,0,0,1223,0,1142,589,0,0,0,0,0,380,0,0,0,0,0,0,0,0,0,0,0,0],"split_type":[0,0,0,0,0,0,0,0,0,0,0,0,0,0,0,0,0,0,0,0,0,0,0,0,0,0,0,0,0,0,0,0,0,0,0,0,0,0,0,0,0,0,0,0,0,0,0,0,0,0,0,0,0,0,0],"sum_hessian":[2.7494937E2,1.21654884E2,1.532945E2,9.6446526E1,2.5208359E1,1.0308026E2,5.0214226E1,9.511265E1,1.333875E0,2.3660723E1,1.5476348E0,1.0095228E2,2.1279857E0,3.429681E1,1.5917414E1,2.8443646E0,9.226829E1,2.1436825E1,2.2238982E0,9.943618E1,1.5161004E0,1.1275926E0,1.0003932E0,3.1228065E1,3.0687442E0,1.02543745E1,5.663039E0,1.0000001E0,1.8443645E0,1.8065485E1,3.3713405E0,1.1298058E0,1.0940924E0,9.842361E1,1.0125679E0,1.62114E1,1.5016666E1,1.6336392E0,1.435105E0,1.0588675E0,9.195507E0,1.7104737E0,3.9525657E0,1.6598501E1,1.4669827E0,2.106926E0,1.2644147E0,9.682586E1,1.5977474E0,4.485652E0,1.1725748E1,4.4040008E0,1.0612665E1,2.6095116E0,1.3430538E0],"tree_param":{"num_deleted":"0","num_feature":"1536","num_nodes":"55","size_leaf_vector":"1"}},{"base_weights":[9.5001893E-4,8.093739E-1,-6.115777E-1,2.136806E-1,9.365648E-1,-1.0272583E-1,-8.995426E-1,-3.5386443E-1,4.526765E-1,9.6426046E-1,-7.534075E-2,-5.168305E-1,1.3281901E-1,-6.769847E-2,-9.762062E-1,1.0439844E-1,7.598548E-1,9.796233E-1,2.935887E-2,-5.421216E-1,-3.245223E-1,2.5293715E-2,2.931013E-1,-5.1002675E-1,4.362162E-1,-2.968753E-1,-1.9517513E-2,-1.4661445E-1,3.1361014E-1,-1.498094E-2,2.631364E-1,2.9693103E-1,3.5027474E-2,1.5152028E-1,-6.1265534E-1,-5.2695477E-1,1.3550042E-1,-2.4940251E-1,2.0264807E-1,-2.7864853E-2,1.9081919E-1,-1.0191802E-1,2.2833659E-1,-2.3666625E-1,4.309667E-2,-2.2605197E-1,4.9143683E-2,2.5298886E-3,2.2940223E-1],"categories":[],"categories_nodes":[],"categories_segments":[],"categories_sizes":[],"default_left":[0,0,0,0,0,0,0,0,0,0,0,0,0,0,0,0,0,0,0,0,0,0,0,0,0,0,0,0,0,0,0,0,0,0,0,0,0,0,0,0,0,0,0,0,0,0,0,0,0],"id":17,"left_children":[1,3,5,7,9,11,13,-1,15,17,-1,19,21,23,25,27,29,31,-1,-1,33,35,-1,37,-1,-1,-1,-1,39,-1,-1,-1,-1,41,43,45,47,-1,-1,-1,-1,-1,-1,-1,-1,-1,-1,-1,-1],"loss_changes":[1.0972108E2,7.0366974E0,1.8379814E1,6.5612493E0,2.821495E0,4.6225433E0,5.059639E0,0E0,1.65097E0,9.268036E-1,0E0,3.6644254E0,2.7488403E0,6.0302286E0,8.317795E-1,1.2376499E0,8.447561E-1,5.444412E-1,0E0,0E0,2.30509E0,1.7834235E0,0E0,3.1624544E0,0E0,0E0,0E0,0E0,9.856941E-1,0E0,0E0,0E0,0E0,2.3198004E0,1.4789252E0,8.877909E-1,1.9319227E0,0E0,0E0,0E0,0E0,0E0,0E0,0E0,0E0,0E0,0E0,0E0,0E0],"parents":[2147483647,0,0,1,1,2,2,3,3,4,4,5,5,6,6,8,8,9,9,11,11,12,12,13,13,14,14,15,15,16,16,17,17,20,20,21,21,23,23,28,28,33,33,34,34,35,35,36,36],"right_children":[2,4,6,8,10,12,14,-1,16,18,-1,20,22,24,26,28,30,32,-1,-1,34,36,-1,38,-1,-1,-1,-1,40,-1,-1,-1,-1,42,44,46,48,-1,-1,-1,-1,-1,-1,-1,-1,-1,-1,-1,-1],"split_conditions":[-6.563382E-1,7.322154E-1,2.9810501E-2,-1.1574019E0,1.479915E-1,-8.70497E-2,-7.403259E-1,-3.5386443E-1,6.211856E-1,-1.1086717E-2,-7.534075E-2,5.921369E-2,-3.383818E-2,-4.2102885E-1,-8.278035E-2,-1.7496288E-1,-1.7085041E-1,-1.4823814E-3,2.935887E-2,-5.421216E-1,4.5090613E-1,-3.2920146E-1,2.931013E-1,4.6277557E-2,4.362162E-1,-2.968753E-1,-1.9517513E-2,-1.4661445E-1,-1.9650157E-1,-1.498094E-2,2.631364E-1,2.9693103E-1,3.5027474E-2,3.0855127E-2,4.2004165E-1,4.8192286E-1,1.2233559E-1,-2.4940251E-1,2.0264807E-1,-2.7864853E-2,1.9081919E-1,-1.0191802E-1,2.2833659E-1,-2.3666625E-1,4.309667E-2,-2.2605197E-1,4.9143683E-2,2.5298886E-3,2.2940223E-1],"split_indices":[219,835,292,1300,57,985,249,0,916,601,0,330,15,316,526,442,275,514,0,0,703,545,0,147,0,0,0,0,667,0,0,0,0,231,699,835,66,0,0,0,0,0,0,0,0,0,0,0,0],"split_type":[0,0,0,0,0,0,0,0,0,0,0,0,0,0,0,0,0,0,0,0,0,0,0,0,0,0,0,0,0,0,0,0,0,0,0,0,0,0,0,0,0,0,0,0,0,0,0,0,0],"sum_hessian":[2.1957762E2,9.45145E1,1.25063126E2,1.7101294E1,7.741321E1,4.5687397E1,7.9375725E1,1.9277908E0,1.5173503E1,7.583301E1,1.5802003E0,1.6132E1,2.9555399E1,6.856947E0,7.251878E1,7.738955E0,7.434548E0,7.438337E1,1.449642E0,1.0033742E0,1.5128625E1,2.7129793E1,2.4256048E0,5.8278165E0,1.0291308E0,7.1384575E1,1.1342026E0,1.6696188E0,6.069336E0,1.0130471E0,6.4215007E0,7.337347E1,1.0098987E0,5.8830323E0,9.245593E0,3.8842432E0,2.324555E1,4.820151E0,1.0076653E0,2.9997406E0,3.0695956E0,3.5029166E0,2.3801157E0,7.4634266E0,1.7821662E0,2.856551E0,1.0276924E0,2.018284E1,3.0627089E0],"tree_param":{"num_deleted":"0","num_feature":"1536","num_nodes":"49","size_leaf_vector":"1"}},{"base_weights":[2.9603898E-4,-7.423648E-1,5.678478E-1,-2.3783872E-1,-9.199212E-1,8.828519E-1,1.3081571E-1,-3.8096026E-1,3.3127165E-1,1.01137534E-1,-9.482385E-1,-1.2291993E-1,9.3091065E-1,2.0303252E-1,-8.5573626E-1,-5.231048E-1,1.9204764E-1,6.3021802E-3,-2.9341367E-1,-8.624846E-2,9.587696E-1,7.946595E-2,7.81524E-1,-4.4559982E-1,5.616455E-2,1.4539942E-1,-6.478127E-1,9.7597855E-1,1.8763825E-2,-4.864048E-1,1.5876941E-1,5.796307E-2,2.5348186E-1,-2.397052E-1,2.0222558E-2,2.9524192E-1,8.0121204E-2,5.2648555E-2,-2.4368902E-1,2.5176424E-1,2.5400946E-2],"categories":[],"categories_nodes":[],"categories_segments":[],"categories_sizes":[],"default_left":[0,0,0,0,0,0,0,0,0,0,0,0,0,0,0,0,0,0,0,0,0,0,0,0,0,0,0,0,0,0,0,0,0,0,0,0,0,0,0,0,0],"id":18,"left_children":[1,3,5,7,9,11,13,15,-1,-1,17,-1,19,21,23,25,-1,-1,-1,-1,27,29,31,-1,-1,-1,33,35,-1,37,39,-1,-1,-1,-1,-1,-1,-1,-1,-1,-1],"loss_changes":[7.6003586E1,6.7783813E0,1.3955193E1,4.585302E0,2.3638725E0,4.060322E0,3.3075323E0,3.286549E0,0E0,0E0,1.6506729E0,0E0,2.2241707E0,2.9254055E0,2.374036E0,2.6265817E0,0E0,0E0,0E0,0E0,8.080864E-1,1.6725951E0,1.0696411E-1,0E0,0E0,0E0,1.8710036E0,5.66597E-2,0E0,1.138249E0,1.5391306E0,0E0,0E0,0E0,0E0,0E0,0E0,0E0,0E0,0E0,0E0],"parents":[2147483647,0,0,1,1,2,2,3,3,4,4,5,5,6,6,7,7,10,10,12,12,13,13,14,14,15,15,20,20,21,21,22,22,26,26,27,27,29,29,30,30],"right_children":[2,4,6,8,10,12,14,16,-1,-1,18,-1,20,22,24,26,-1,-1,-1,-1,28,30,32,-1,-1,-1,34,36,-1,38,40,-1,-1,-1,-1,-1,-1,-1,-1,-1,-1],"split_conditions":[-3.885837E-1,-3.4568835E-2,-6.688956E-1,2.0495601E-1,-1.9539983E0,4.3726248E-1,1.914463E-1,1.7947004E0,3.3127165E-1,1.01137534E-1,-2.8619552E-1,-1.2291993E-1,-9.2342454E-1,4.6903592E-1,-2.9961038E-1,1.905293E-2,1.9204764E-1,6.3021802E-3,-2.9341367E-1,-8.624846E-2,2.9711452E0,1.4565518E-2,-1.3926817E0,-4.4559982E-1,5.616455E-2,1.4539942E-1,2.0409258E-1,6.3709956E-1,1.8763825E-2,7.771951E-1,-7.421739E-1,5.796307E-2,2.5348186E-1,-2.397052E-1,2.0222558E-2,2.9524192E-1,8.0121204E-2,5.2648555E-2,-2.4368902E-1,2.5176424E-1,2.5400946E-2],"split_indices":[241,329,588,66,982,48,268,1253,0,0,2,0,1036,484,1529,542,0,0,0,0,1223,589,1047,0,0,0,872,1499,0,776,522,0,0,0,0,0,0,0,0,0,0],"split_type":[0,0,0,0,0,0,0,0,0,0,0,0,0,0,0,0,0,0,0,0,0,0,0,0,0,0,0,0,0,0,0,0,0,0,0,0,0,0,0,0,0],"sum_hessian":[1.7831747E2,7.710931E1,1.0120817E2,2.0681734E1,5.642757E1,5.8222458E1,4.2985714E1,1.9335863E1,1.3458697E0,1.0028791E0,5.542469E1,1.8173524E0,5.6405106E1,4.079376E1,2.1919532E0,1.7401243E1,1.93462E0,1.6624212E0,5.376227E1,1.0525485E0,5.535256E1,3.4550987E1,6.242771E0,1.1023418E0,1.0896114E0,1.5983684E0,1.58028755E1,5.422241E1,1.1301472E0,3.615941E0,3.0935047E1,1.0012047E0,5.2415667E0,1.2948317E1,2.8545587E0,5.322146E1,1.0009493E0,1.3452253E0,2.2707157E0,2.0239503E0,2.8911097E1],"tree_param":{"num_deleted":"0","num_feature":"1536","num_nodes":"41","size_leaf_vector":"1"}},{"base_weights":[1.7734142E-3,7.121015E-1,-4.8603526E-1,1.4098372E-1,8.992039E-1,-8.7950873E-1,-7.34623E-2,-5.705102E-1,3.328685E-1,-8.7044194E-2,9.4965345E-1,1.9241597E-1,-9.510005E-1,-1.705571E-1,8.629138E-1,1.0914294E-1,-3.4566146E-1,-3.854255E-2,2.4977985E-1,2.929868E-1,-1.1895831E-2,-1.020094E0,3.068649E-1,6.6053316E-2,-4.6730804E-1,-1.7929816E-1,5.544703E-1,1.5170597E-1,-2.6242852E-1,-7.98577E-2,-3.1011128E-1,2.9929063E-1,-1.5455116E-1,2.085444E-1,-2.987348E-1,1.4705094E-2,-7.2614557E-1,7.510381E-2,-1.5438387E-1,-1.7141671E-1,4.6238273E-2,1.2840948E-1,-2.2706093E-2,-1.5161991E-1,8.575943E-2,-1.675666E-1,1.2116047E-1,1.422208E-2,-2.5799415E-1],"categories":[],"categories_nodes":[],"categories_segments":[],"categories_sizes":[],"default_left":[0,0,0,0,0,0,0,0,0,0,0,0,0,0,0,0,0,0,0,0,0,0,0,0,0,0,0,0,0,0,0,0,0,0,0,0,0,0,0,0,0,0,0,0,0,0,0,0,0],"id":19,"left_children":[1,3,5,7,9,11,13,15,17,-1,19,-1,21,23,25,-1,-1,27,-1,-1,-1,29,31,33,35,37,-1,-1,39,-1,-1,-1,-1,41,43,45,47,-1,-1,-1,-1,-1,-1,-1,-1,-1,-1,-1,-1],"loss_changes":[5.211052E1,6.415941E0,1.4409647E1,2.4145741E0,3.0316505E0,5.562271E0,4.2035213E0,2.5005567E0,2.5313296E0,0E0,1.2206383E0,0E0,4.1287613E0,2.9278488E0,4.805332E0,0E0,0E0,1.190341E0,0E0,0E0,0E0,1.5424347E-1,2.2485812E0,1.3010565E0,2.3097196E0,5.651774E-1,0E0,0E0,9.6431017E-1,0E0,0E0,0E0,0E0,1.1382697E0,1.0029113E0,1.8805323E0,1.2840428E0,0E0,0E0,0E0,0E0,0E0,0E0,0E0,0E0,0E0,0E0,0E0,0E0],"parents":[2147483647,0,0,1,1,2,2,3,3,4,4,5,5,6,6,7,7,8,8,10,10,12,12,13,13,14,14,17,17,21,21,22,22,23,23,24,24,25,25,28,28,33,33,34,34,35,35,36,36],"right_children":[2,4,6,8,10,12,14,16,18,-1,20,-1,22,24,26,-1,-1,28,-1,-1,-1,30,32,34,36,38,-1,-1,40,-1,-1,-1,-1,42,44,46,48,-1,-1,-1,-1,-1,-1,-1,-1,-1,-1,-1,-1],"split_conditions":[-6.563382E-1,7.802457E-1,7.25761E-2,-2.3613596E0,-2.2930428E-1,-2.1361935E0,3.5872443E0,2.1522693E-1,5.963269E-1,-8.7044194E-2,-1.1086717E-2,1.9241597E-1,1.701156E-1,9.59397E-1,2.0794423E0,1.0914294E-1,-3.4566146E-1,-5.5533195E-1,2.4977985E-1,2.929868E-1,-1.1895831E-2,-1.5846251E-1,4.4566473E-1,3.18032E-1,-1.21824175E-1,1.0613719E0,5.544703E-1,1.5170597E-1,-3.7314063E-1,-7.98577E-2,-3.1011128E-1,2.9929063E-1,-1.5455116E-1,1.2909631E-1,2.0357318E0,9.264772E-2,-2.492363E-1,7.510381E-2,-1.5438387E-1,-1.7141671E-1,4.6238273E-2,1.2840948E-1,-2.2706093E-2,-1.5161991E-1,8.575943E-2,-1.675666E-1,1.2116047E-1,1.422208E-2,-2.5799415E-1],"split_indices":[219,901,528,980,551,944,1108,1127,1116,0,601,0,7,1353,1040,0,0,1453,0,0,0,67,703,1347,119,1295,0,0,1453,0,0,0,0,57,1267,840,514,0,0,0,0,0,0,0,0,0,0,0,0],"split_type":[0,0,0,0,0,0,0,0,0,0,0,0,0,0,0,0,0,0,0,0,0,0,0,0,0,0,0,0,0,0,0,0,0,0,0,0,0,0,0,0,0,0,0,0,0,0,0,0,0],"sum_hessian":[1.4839043E2,6.0228386E1,8.816204E1,1.5294975E1,4.493341E1,4.454624E1,4.3615803E1,2.829652E0,1.2465323E1,1.6350797E0,4.329833E1,1.6420608E0,4.2904182E1,4.0259106E1,3.3566964E0,1.2294593E0,1.6001929E0,7.6801443E0,4.7851787E0,4.216179E1,1.1365397E0,4.0849384E1,2.054796E0,2.2831848E1,1.7427258E1,2.0287933E0,1.3279032E0,1.8716937E0,5.8084507E0,1.0889387E0,3.9760445E1,1.0004686E0,1.0543272E0,1.672655E1,6.1052985E0,6.418244E0,1.1009013E1,1.0003842E0,1.028409E0,3.1215172E0,2.6869335E0,9.15275E0,7.5737996E0,4.6107907E0,1.4945079E0,2.4192588E0,3.9989848E0,1.7190218E0,9.289991E0],"tree_param":{"num_deleted":"0","num_feature":"1536","num_nodes":"49","size_leaf_vector":"1"}},{"base_weights":[2.4143062E-3,4.1004106E-1,-6.825641E-1,9.120949E-1,1.4189416E-1,2.3760827E-1,-7.513354E-1,2.8897375E-1,-4.5420166E-2,-3.1701806E-1,1.8928088E-1,-8.5526884E-1,3.3392453E-1,4.7561787E-2,7.669326E-1,-9.500557E-1,-4.299582E-2,-2.0217398E-1,4.110887E-1,-3.5437623E-1,1.0819909E-1,2.6727596E-1,-4.247638E-2,-2.9284698E-1,-1.3640462E-3,-4.2053694E-1,1.3597198E-1,-1.7414107E-3,1.6920477E-1,-1.8633331E-1,1.472032E-2],"categories":[],"categories_nodes":[],"categories_segments":[],"categories_sizes":[],"default_left":[0,0,0,0,0,0,0,0,0,0,0,0,0,0,0,0,0,0,0,0,0,0,0,0,0,0,0,0,0,0,0],"id":20,"left_children":[1,3,5,7,9,-1,11,-1,-1,-1,13,15,17,19,21,23,25,-1,-1,-1,27,-1,-1,-1,-1,29,-1,-1,-1,-1,-1],"loss_changes":[3.5116444E1,1.0484779E1,5.3534794E0,1.6290283E0,3.1863816E0,0E0,5.400278E0,0E0,0E0,0E0,4.1735177E0,3.1668816E0,5.8140697E0,3.2842455E0,1.2599282E0,9.15123E-1,1.2024999E0,0E0,0E0,0E0,2.1486635E0,0E0,0E0,0E0,0E0,3.6825496E-1,0E0,0E0,0E0,0E0,0E0],"parents":[2147483647,0,0,1,1,2,2,3,3,4,4,6,6,10,10,11,11,12,12,13,13,14,14,15,15,16,16,20,20,25,25],"right_children":[2,4,6,8,10,-1,12,-1,-1,-1,14,16,18,20,22,24,26,-1,-1,-1,28,-1,-1,-1,-1,30,-1,-1,-1,-1,-1],"split_conditions":[5.160902E-1,-5.423044E-1,-4.3049195E-1,-1.063609E0,-2.507572E0,2.3760827E-1,2.7747467E0,2.8897375E-1,-4.5420166E-2,-3.1701806E-1,2.7818385E-1,-1.847507E-2,-1.7007694E0,-2.4554238E-1,5.9100133E-1,1.4075892E-1,4.0276542E-1,-2.0217398E-1,4.110887E-1,-3.5437623E-1,1.4499596E0,2.6727596E-1,-4.247638E-2,-2.9284698E-1,-1.3640462E-3,-5.9186567E-2,1.3597198E-1,-1.7414107E-3,1.6920477E-1,-1.8633331E-1,1.472032E-2],"split_indices":[588,233,331,1026,896,0,839,0,0,0,78,1157,1495,12,1115,567,732,0,0,0,1511,0,0,0,0,197,0,0,0,0,0],"split_type":[0,0,0,0,0,0,0,0,0,0,0,0,0,0,0,0,0,0,0,0,0,0,0,0,0,0,0,0,0,0,0],"sum_hessian":[1.2376585E2,7.7843185E1,4.5922657E1,2.6265182E1,5.1578007E1,1.5776606E0,4.4344997E1,2.5149817E1,1.1153654E0,1.1514958E0,5.042651E1,4.066272E1,3.6822762E0,4.1361385E1,9.0651245E0,3.6261604E1,4.401116E0,2.0441465E0,1.6381297E0,1.0759803E0,4.0285404E1,7.993599E0,1.0715255E0,3.525595E1,1.0056565E0,2.5861177E0,1.8149981E0,3.3015263E1,7.2701426E0,1.5860642E0,1.0000534E0],"tree_param":{"num_deleted":"0","num_feature":"1536","num_nodes":"31","size_leaf_vector":"1"}},{"base_weights":[1.4383618E-3,-8.6908895E-1,2.586905E-1,6.562824E-2,-2.8740197E-1,8.8572836E-1,4.7915947E-2,2.853308E-1,-6.1891712E-2,-2.4115805E-2,6.9671035E-1,5.070547E-2,-1.3050387E0,2.452085E-1,6.8514664E-3,-3.5105154E-3,9.314534E-1,-6.976521E-1,7.450124E-2,3.224936E-2,-1.6914478E-1,-1.065568E-1,5.745608E-1],"categories":[],"categories_nodes":[],"categories_segments":[],"categories_sizes":[],"default_left":[0,0,0,0,0,0,0,0,0,0,0,0,0,0,0,0,0,0,0,0,0,0,0],"id":21,"left_children":[1,3,5,-1,-1,7,9,-1,-1,11,13,15,17,-1,-1,19,21,-1,-1,-1,-1,-1,-1],"loss_changes":[2.4290499E1,2.6028538E0,1.1022341E1,0E0,0E0,1.6957817E0,2.9944642E0,0E0,0E0,5.6550884E0,5.017159E-1,2.680131E0,5.738356E0,0E0,0E0,3.4071865E0,4.799555E0,0E0,0E0,0E0,0E0,0E0,0E0],"parents":[2147483647,0,0,1,1,2,2,5,5,6,6,9,9,10,10,11,11,12,12,15,15,16,16],"right_children":[2,4,6,-1,-1,8,10,-1,-1,12,14,16,18,-1,-1,20,22,-1,-1,-1,-1,-1,-1],"split_conditions":[-5.486722E-1,-1.4507976E0,-5.423044E-1,6.562824E-2,-2.8740197E-1,-1.0176697E0,3.7603662E0,2.853308E-1,-6.1891712E-2,9.025555E-1,-1.8590061E-1,2.0495601E-1,8.7842417E-1,2.452085E-1,6.8514664E-3,9.8293126E-2,-6.128408E-1,-6.976521E-1,7.450124E-2,3.224936E-2,-1.6914478E-1,-1.065568E-1,5.745608E-1],"split_indices":[469,1209,233,0,0,1026,1034,0,0,1302,435,66,897,0,0,686,260,0,0,0,0,0,0],"split_type":[0,0,0,0,0,0,0,0,0,0,0,0,0,0,0,0,0,0,0,0,0,0,0],"sum_hessian":[1.0646243E2,2.3742098E1,8.272033E1,1.6836364E0,2.2058462E1,2.000494E1,6.271539E1,1.8996758E1,1.0081818E0,5.731489E1,5.4004984E0,5.505919E1,2.255703E0,4.399815E0,1.0006837E0,5.2804718E1,2.254473E0,1.061379E0,1.1943239E0,4.4747444E1,8.057274E0,1.2537024E0,1.0007706E0],"tree_param":{"num_deleted":"0","num_feature":"1536","num_nodes":"23","size_leaf_vector":"1"}},{"base_weights":[7.2400755E-4,-8.1149113E-1,2.177259E-1,-9.2355543E-1,8.385743E-2,6.3260645E-3,7.435467E-1,-7.629417E-2,-2.8406107E-1,6.687065E-1,-5.263773E-2,-1.9612265E-1,8.620453E-1,-9.244361E-2,5.0252485E-1,-5.2167344E-1,8.4193625E-2,2.788132E-1,-5.180416E-2,1.3890438E-1,-1.7446566E-1,-8.064799E-1,-1.8326232E-3,2.5948478E-2,3.3234784E-1,-2.6088575E-1,-5.9836205E-2,-1.11031055E-1,1.4645064E-1,-2.599604E-1,2.9341798E-2],"categories":[],"categories_nodes":[],"categories_segments":[],"categories_sizes":[],"default_left":[0,0,0,0,0,0,0,0,0,0,0,0,0,0,0,0,0,0,0,0,0,0,0,0,0,0,0,0,0,0,0],"id":22,"left_children":[1,3,5,7,-1,9,11,-1,-1,13,15,-1,17,19,-1,21,23,-1,-1,-1,-1,25,27,29,-1,-1,-1,-1,-1,-1,-1],"loss_changes":[1.7174952E1,2.7701578E0,8.543062E0,5.3539276E-2,0E0,2.216709E0,4.213174E0,0E0,0E0,3.708086E0,3.3951197E0,0E0,1.606143E0,1.2442746E0,0E0,1.765068E0,2.432723E0,0E0,0E0,0E0,0E0,1.21908665E-1,1.1236402E0,2.6555438E0,0E0,0E0,0E0,0E0,0E0,0E0,0E0],"parents":[2147483647,0,0,1,1,2,2,3,3,5,5,6,6,9,9,10,10,12,12,13,13,15,15,16,16,21,21,22,22,23,23],"right_children":[2,4,6,8,-1,10,12,-1,-1,14,16,-1,18,20,-1,22,24,-1,-1,-1,-1,26,28,30,-1,-1,-1,-1,-1,-1,-1],"split_conditions":[-2.156643E-1,-1.0477768E-1,3.3764833E-1,3.7649888E-1,8.385743E-2,-2.6210895E0,2.15827E-2,-7.629417E-2,-2.8406107E-1,1.8588324E0,-1.8284628E0,-1.9612265E-1,5.1325333E-1,2.0062637E-1,5.0252485E-1,1.3721035E0,2.4822482E-1,2.788132E-1,-5.180416E-2,1.3890438E-1,-1.7446566E-1,3.027766E-1,-9.3623036E-1,1.3666905E-1,3.3234784E-1,-2.6088575E-1,-5.9836205E-2,-1.11031055E-1,1.4645064E-1,-2.599604E-1,2.9341798E-2],"split_indices":[697,142,763,1420,0,1160,134,0,0,894,772,0,24,277,0,1423,320,0,0,0,0,158,1082,740,0,0,0,0,0,0,0],"split_type":[0,0,0,0,0,0,0,0,0,0,0,0,0,0,0,0,0,0,0,0,0,0,0,0,0,0,0,0,0,0,0],"sum_hessian":[9.544286E1,1.9545725E1,7.589714E1,1.7864277E1,1.6814488E0,5.4855274E1,2.1041862E1,1.002273E0,1.6862003E1,3.6386685E0,5.1216606E1,1.2918613E0,1.9750002E1,2.588817E0,1.0498517E0,1.0931765E1,4.0284843E1,1.8638935E1,1.111067E0,1.2371699E0,1.3516471E0,6.7062154E0,4.2255487E0,3.908617E1,1.1986711E0,5.682559E0,1.0236561E0,2.5521305E0,1.6734185E0,2.08843E0,3.699774E1],"tree_param":{"num_deleted":"0","num_feature":"1536","num_nodes":"31","size_leaf_vector":"1"}},{"base_weights":[-9.950993E-4,-8.6239976E-1,1.6560309E-1,-2.7752522E-1,-6.1375783E-3,6.157284E-1,-4.4366706E-2,7.662202E-1,-3.324461E-1,-2.2435549E-1,1.4495661E-2,-2.4600719E-1,9.444769E-1,-3.7058765E-1,1.8360016E-1,2.9895878E-1,-4.4902597E-2,1.6377895E-1,-2.4211833E-1,-8.121096E-2,1.0394605E0,3.0926213E-1,-1.4476644E-1,3.2123476E-1,8.487161E-2,-3.4971863E-2,1.6327924E-1,-7.182097E-2,8.192293E-2],"categories":[],"categories_nodes":[],"categories_segments":[],"categories_sizes":[],"default_left":[0,0,0,0,0,0,0,0,0,0,0,0,0,0,0,0,0,0,0,0,0,0,0,0,0,0,0,0,0],"id":23,"left_children":[1,3,5,-1,-1,7,9,11,13,-1,15,17,19,-1,-1,-1,21,-1,-1,-1,23,25,27,-1,-1,-1,-1,-1,-1],"loss_changes":[1.25207405E1,7.2728634E-1,6.9374356E0,0E0,0E0,3.5828552E0,2.113965E0,3.9189415E0,4.074861E0,0E0,2.8358173E0,2.1524124E0,2.310378E0,0E0,0E0,0E0,1.6744189E0,0E0,0E0,0E0,8.833122E-2,1.1095414E0,1.5135766E0,0E0,0E0,0E0,0E0,0E0,0E0],"parents":[2147483647,0,0,1,1,2,2,5,5,6,6,7,7,8,8,10,10,11,11,12,12,16,16,20,20,21,21,22,22],"right_children":[2,4,6,-1,-1,8,10,12,14,-1,16,18,20,-1,-1,-1,22,-1,-1,-1,24,26,28,-1,-1,-1,-1,-1,-1],"split_conditions":[-5.534357E-1,3.4510344E-2,-2.0170184E-3,-2.7752522E-1,-6.1375783E-3,4.6958554E-1,-4.4431353E-1,-8.995042E-1,-4.1948873E-1,-2.2435549E-1,6.8400666E-2,-4.3752294E-2,7.087502E-2,-3.7058765E-1,1.8360016E-1,2.9895878E-1,-2.052384E-1,1.6377895E-1,-2.4211833E-1,-8.121096E-2,1.1147151E0,-2.4601792E-1,2.0168947E-1,3.2123476E-1,8.487161E-2,-3.4971863E-2,1.6327924E-1,-7.182097E-2,8.192293E-2],"split_indices":[469,372,528,0,0,125,397,1101,412,0,706,635,263,0,0,0,818,0,0,0,1126,711,766,0,0,0,0,0,0],"split_type":[0,0,0,0,0,0,0,0,0,0,0,0,0,0,0,0,0,0,0,0,0,0,0,0,0,0,0,0,0],"sum_hessian":[8.5252235E1,1.31391325E1,7.2113106E1,1.2136774E1,1.0023588E0,2.2323776E1,4.978933E1,1.943155E1,2.8922265E0,2.940561E0,4.6848766E1,2.8526657E0,1.6578884E1,1.3212352E0,1.5709912E0,1.7721796E0,4.5076588E1,1.1941125E0,1.6585532E0,1.0678078E0,1.5511076E1,9.45342E0,3.562317E1,1.4495605E1,1.0154705E0,3.5409663E0,5.912454E0,2.9393023E1,6.2301455E0],"tree_param":{"num_deleted":"0","num_feature":"1536","num_nodes":"29","size_leaf_vector":"1"}},{"base_weights":[2.3401778E-3,-8.25625E-1,1.3940926E-1,-5.75169E-3,-2.708609E-1,7.7481014E-1,1.9736461E-2,2.692182E-1,-6.179006E-2,-2.1585062E-2,3.055938E-1,-2.2265755E-1,3.8218614E-2,3.04022E-1,-5.831023E-3,-2.7262467E-1,1.1117213E-2],"categories":[],"categories_nodes":[],"categories_segments":[],"categories_sizes":[],"default_left":[0,0,0,0,0,0,0,0,0,0,0,0,0,0,0,0,0],"id":24,"left_children":[1,3,5,-1,-1,7,9,-1,-1,11,-1,-1,13,-1,15,-1,-1],"loss_changes":[8.946952E0,6.802521E-1,5.12683E0,0E0,0E0,1.470263E0,2.4132183E0,0E0,0E0,2.4679723E0,0E0,0E0,2.2921925E0,0E0,2.044149E0,0E0,0E0],"parents":[2147483647,0,0,1,1,2,2,5,5,6,6,9,9,12,12,14,14],"right_children":[2,4,6,-1,-1,8,10,-1,-1,12,-1,-1,14,-1,16,-1,-1],"split_conditions":[-5.534357E-1,-2.2002823E0,-5.423044E-1,-5.75169E-3,-2.708609E-1,-1.463329E0,6.158755E-1,2.692182E-1,-6.179006E-2,-1.5572132E-1,3.055938E-1,-2.2265755E-1,6.8400666E-2,3.04022E-1,-3.7670317E-1,-2.7262467E-1,1.1117213E-2],"split_indices":[469,1490,233,0,0,1358,132,0,0,343,0,0,706,0,479,0,0],"split_type":[0,0,0,0,0,0,0,0,0,0,0,0,0,0,0,0,0],"sum_hessian":[7.682161E1,1.0197888E1,6.662372E1,1.0005113E0,9.197377E0,9.69165E0,5.6932068E1,8.690475E0,1.0011746E0,5.5610058E1,1.3220098E0,3.387061E0,5.2223E1,1.3059242E0,5.0917072E1,1.3934052E0,4.952367E1],"tree_param":{"num_deleted":"0","num_feature":"1536","num_nodes":"17","size_leaf_vector":"1"}},{"base_weights":[1.1222465E-3,-7.495105E-1,1.16837576E-1,-2.67192E-1,7.539168E-2,-7.5983475E-3,6.37138E-1,3.1185335E-1,-4.907314E-2,8.457093E-1,-1.10920645E-1,-1.157951E-1,5.727677E-1,2.6932237E-1,5.1735826E-2,-1.0858632E0,-1.7325845E-2,2.3050858E-1,-3.5206705E-2,-4.188923E-1,-3.1251565E-2,-1.9347686E-2,2.9683316E-1],"categories":[],"categories_nodes":[],"categories_segments":[],"categories_sizes":[],"default_left":[0,0,0,0,0,0,0,0,0,0,0,0,0,0,0,0,0,0,0,0,0,0,0],"id":25,"left_children":[1,3,5,-1,-1,7,9,-1,11,13,-1,15,17,-1,-1,19,21,-1,-1,-1,-1,-1,-1],"loss_changes":[6.4753036E0,1.6302629E0,4.1862288E0,0E0,0E0,2.3573675E0,2.9328256E0,0E0,2.2254171E0,2.179017E-1,0E0,4.549773E0,7.935343E-1,0E0,0E0,1.1928267E0,2.173906E0,0E0,0E0,0E0,0E0,0E0,0E0],"parents":[2147483647,0,0,1,1,2,2,5,5,6,6,8,8,9,9,11,11,12,12,15,15,16,16],"right_children":[2,4,6,-1,-1,8,10,-1,12,14,-1,16,18,-1,-1,20,22,-1,-1,-1,-1,-1,-1],"split_conditions":[-7.735107E-1,4.39438E-1,3.3853632E-1,-2.67192E-1,7.539168E-2,-7.7203655E-1,-6.5528786E-1,3.1185335E-1,4.4616303E-1,-1.5111388E0,-1.10920645E-1,-3.980036E-2,-6.584692E-1,2.6932237E-1,5.1735826E-2,1.11526854E-1,2.0466032E0,2.3050858E-1,-3.5206705E-2,-4.188923E-1,-3.1251565E-2,-1.9347686E-2,2.9683316E-1],"split_indices":[661,1061,540,0,0,661,771,0,758,1058,0,717,219,0,0,263,801,0,0,0,0,0,0],"split_type":[0,0,0,0,0,0,0,0,0,0,0,0,0,0,0,0,0,0,0,0,0,0,0],"sum_hessian":[7.25408E1,8.95747E0,6.358333E1,7.946925E0,1.0105444E0,5.210678E1,1.1476548E1,1.0684351E0,5.1038345E1,9.63976E0,1.8367882E0,4.6827644E1,4.210702E0,8.638697E0,1.0010631E0,3.3912606E0,4.3436382E1,3.1925132E0,1.0181887E0,2.255611E0,1.1356498E0,4.2386543E1,1.049838E0],"tree_param":{"num_deleted":"0","num_feature":"1536","num_nodes":"23","size_leaf_vector":"1"}},{"base_weights":[5.740779E-3,1.1157163E-1,-6.564337E-1,3.3062447E-2,7.2756E-1,-2.552054E-1,9.039366E-2,-3.1352884E-1,7.755292E-2,2.483985E-1,2.2406913E-2,9.032798E-1,2.3759361E-2,-3.3534277E-2,4.256616E-1,1.24462865E-1,-5.67294E-1,1.09576136E-1,-1.435885E-2,7.414283E-2,-2.1845914E-1],"categories":[],"categories_nodes":[],"categories_segments":[],"categories_sizes":[],"default_left":[0,0,0,0,0,0,0,0,0,0,0,0,0,0,0,0,0,0,0,0,0],"id":26,"left_children":[1,3,5,7,9,-1,-1,-1,11,-1,-1,13,15,-1,-1,17,19,-1,-1,-1,-1],"loss_changes":[4.9077907E0,2.8938346E0,2.051962E0,2.6983101E0,3.82272E-1,0E0,0E0,0E0,2.3474576E0,0E0,0E0,1.8515928E0,